{"learner":{"attributes":{},"feature_names":["T1_Akai","T2_Akai","T1_Alice","T2_Alice","T1_Angela","T2_Angela","T1_Arlott","T2_Arlott","T1_Aurora","T2_Aurora","T1_Badang","T2_Badang","T1_Bane","T2_Bane","T1_Baxia","T2_Baxia","T1_Beatrix","T2_Beatrix","T1_Benedetta","T2_Benedetta","T1_Brody","T2_Brody","T1_Bruno","T2_Bruno","T1_Carmilla","T2_Carmilla","T1_Cecilion","T2_Cecilion","T1_Chip","T2_Chip","T1_Chou","T2_Chou","T1_Cici","T2_Cici","T1_Claude","T2_Claude","T1_Clint","T2_Clint","T1_Dyrroth","T2_Dyrroth","T1_Edith","T2_Edith","T1_Esmeralda","T2_Esmeralda","T1_Estes","T2_Estes","T1_Fanny","T2_Fanny","T1_Franco","T2_Franco","T1_Fredrinn","T2_Fredrinn","T1_Freya","T2_Freya","T1_Gatotkaca","T2_Gatotkaca","T1_Gloo","T2_Gloo","T1_Granger","T2_Granger","T1_Grock","T2_Grock","T1_Guinevere","T2_Guinevere","T1_Hanabi","T2_Hanabi","T1_Harith","T2_Harith","T1_Hayabusa","T2_Hayabusa","T1_Helcurt","T2_Helcurt","T1_Hilda","T2_Hilda","T1_Hylos","T2_Hylos","T1_Irithel","T2_Irithel","T1_Jawhead","T2_Jawhead","T1_Joy","T2_Joy","T1_Kadita","T2_Kadita","T1_Kagura","T2_Kagura","T1_Kaja","T2_Kaja","T1_Kalea","T2_Kalea","T1_Karrie","T2_Karrie","T1_Khaleed","T2_Khaleed","T1_Khufra","T2_Khufra","T1_Kimmy","T2_Kimmy","T1_Lancelot","T2_Lancelot","T1_Lapu-Lapu","T2_Lapu-Lapu","T1_Ling","T2_Ling","T1_Lolita","T2_Lolita","T1_Lukas","T2_Lukas","T1_Lunox","T2_Lunox","T1_Luo Yi","T2_Luo Yi","T1_Lylia","T2_Lylia","T1_Masha","T2_Masha","T1_Mathilda","T2_Mathilda","T1_Minotaur","T2_Minotaur","T1_Minsitthar","T2_Minsitthar","T1_Moskov","T2_Moskov","T1_Nana","T2_Nana","T1_Natan","T2_Natan","T1_Nolan","T2_Nolan","T1_Novaria","T2_Novaria","T1_Obsidia","T2_Obsidia","T1_Odette","T2_Odette","T1_Paquito","T2_Paquito","T1_Pharsa","T2_Pharsa","T1_Phoveus","T2_Phoveus","T1_Roger","T2_Roger","T1_Ruby","T2_Ruby","T1_Selena","T2_Selena","T1_Sun","T2_Sun","T1_Suyou","T2_Suyou","T1_Terizla","T2_Terizla","T1_Thamuz","T2_Thamuz","T1_Tigreal","T2_Tigreal","T1_Uranus","T2_Uranus","T1_Valentina","T2_Valentina","T1_Vexana","T2_Vexana","T1_Wanwan","T2_Wanwan","T1_X.Borg","T2_X.Borg","T1_Yi Sun-shin","T2_Yi Sun-shin","T1_Yu Zhong","T2_Yu Zhong","T1_Yve","T2_Yve","T1_Zetian","T2_Zetian","T1_Zhuxin","T2_Zhuxin"],"feature_types":["int","int","int","int","int","int","int","int","int","int","int","int","int","int","int","int","int","int","int","int","int","int","int","int","int","int","int","int","int","int","int","int","int","int","int","int","int","int","int","int","int","int","int","int","int","int","int","int","int","int","int","int","int","int","int","int","int","int","int","int","int","int","int","int","int","int","int","int","int","int","int","int","int","int","int","int","int","int","int","int","int","int","int","int","int","int","int","int","int","int","int","int","int","int","int","int","int","int","int","int","int","int","int","int","int","int","int","int","int","int","int","int","int","int","int","int","int","int","int","int","int","int","int","int","int","int","int","int","int","int","int","int","int","int","int","int","int","int","int","int","int","int","int","int","int","int","int","int","int","int","int","int","int","int","int","int","int","int","int","int","int","int","int","int","int","int","int","int","int","int","int","int","int","int","int","int","int","int"],"gradient_booster":{"model":{"cats":{"enc":[],"feature_segments":[],"sorted_idx":[]},"gbtree_model_param":{"num_parallel_tree":"1","num_trees":"100"},"iteration_indptr":[0,1,2,3,4,5,6,7,8,9,10,11,12,13,14,15,16,17,18,19,20,21,22,23,24,25,26,27,28,29,30,31,32,33,34,35,36,37,38,39,40,41,42,43,44,45,46,47,48,49,50,51,52,53,54,55,56,57,58,59,60,61,62,63,64,65,66,67,68,69,70,71,72,73,74,75,76,77,78,79,80,81,82,83,84,85,86,87,88,89,90,91,92,93,94,95,96,97,98,99,100],"tree_info":[0,0,0,0,0,0,0,0,0,0,0,0,0,0,0,0,0,0,0,0,0,0,0,0,0,0,0,0,0,0,0,0,0,0,0,0,0,0,0,0,0,0,0,0,0,0,0,0,0,0,0,0,0,0,0,0,0,0,0,0,0,0,0,0,0,0,0,0,0,0,0,0,0,0,0,0,0,0,0,0,0,0,0,0,0,0,0,0,0,0,0,0,0,0,0,0,0,0,0,0],"trees":[{"base_weights":[1.0629718E-7,1.0583356E-1,-9.7745514E-1,-1.5323337E-2,5.942959E-1,-1.0931093E0,-2.8545156E-2,9.3685366E-2,-7.128402E-1,7.29478E-1,-2.8545156E-2,-1.2858005E-1,-2.8545156E-2,2.19638E-1,-6.5659624E-1,-9.791293E-1,-7.5428993E-3,8.738953E-1,-6.7871646E-3,3.1472467E-2,-8.4926814E-2,-8.280595E-2,-6.7871646E-3,-1.1576408E-1,-2.8545156E-2,1.0489483E-1,1.1019422E-2],"categories":[],"categories_nodes":[],"categories_segments":[],"categories_sizes":[],"default_left":[0,0,0,0,0,0,0,0,0,0,0,0,0,0,0,0,0,0,0,0,0,0,0,0,0,0,0],"id":0,"left_children":[1,3,5,7,9,11,-1,13,15,17,-1,-1,-1,19,21,23,-1,25,-1,-1,-1,-1,-1,-1,-1,-1,-1],"loss_changes":[6.6001987E0,3.4160821E0,1.8683767E-1,3.648249E0,1.5719008E0,4.0912533E-1,0E0,4.0773144E0,1.0264521E0,1.236217E0,0E0,0E0,0E0,3.9656005E0,5.730133E-1,2.2540045E-1,0E0,1.0508819E0,0E0,0E0,0E0,0E0,0E0,0E0,0E0,0E0,0E0],"parents":[2147483647,0,0,1,1,2,2,3,3,4,4,5,5,7,7,8,8,9,9,13,13,14,14,15,15,17,17],"right_children":[2,4,6,8,10,12,-1,14,16,18,-1,-1,-1,20,22,24,-1,26,-1,-1,-1,-1,-1,-1,-1,-1,-1],"split_conditions":[1E0,1E0,1E0,1E0,1E0,1E0,-2.8545156E-2,1E0,1E0,1E0,-2.8545156E-2,-1.2858005E-1,-2.8545156E-2,1E0,1E0,1E0,-7.5428993E-3,1E0,-6.7871646E-3,3.1472467E-2,-8.4926814E-2,-8.280595E-2,-6.7871646E-3,-1.1576408E-1,-2.8545156E-2,1.0489483E-1,1.1019422E-2],"split_indices":[80,97,7,75,43,32,0,158,168,169,0,0,0,34,177,177,0,59,0,0,0,0,0,0,0,0,0],"split_type":[0,0,0,0,0,0,0,0,0,0,0,0,0,0,0,0,0,0,0,0,0,0,0,0,0,0,0],"sum_hessian":[6.180242E1,5.6569153E1,5.2332697E0,4.610261E1,1.0466539E1,3.987253E0,1.2460165E0,4.062014E1,5.482473E0,9.220523E0,1.2460165E0,2.7412364E0,1.2460165E0,3.538687E1,5.2332697E0,3.4888463E0,1.9936265E0,7.7253027E0,1.4952198E0,3.314404E1,2.2428298E0,3.7380497E0,1.4952198E0,2.2428298E0,1.2460165E0,5.9808793E0,1.7444232E0],"tree_param":{"num_deleted":"0","num_feature":"178","num_nodes":"27","size_leaf_vector":"1"}},{"base_weights":[-6.284303E-3,9.1755636E-2,-9.075974E-1,2.969225E-2,1.0443651E-1,-1.0181253E0,-2.5822347E-2,-4.421016E-2,6.733179E-1,-1.20905876E-1,-2.4705792E-2,9.294994E-2,-5.311698E-1,2.5510636E-1,1.11392595E-1,1.830093E-2,-1.0852869E-1,-7.211384E-2,2.3203397E-2,5.7601243E-2,-2.857245E-2],"categories":[],"categories_nodes":[],"categories_segments":[],"categories_sizes":[],"default_left":[0,0,0,0,0,0,0,0,0,0,0,0,0,0,0,0,0,0,0,0,0],"id":1,"left_children":[1,3,5,7,-1,9,-1,11,13,-1,-1,15,17,19,-1,-1,-1,-1,-1,-1,-1],"loss_changes":[5.6259766E0,3.3673267E0,1.853509E-1,2.6455526E0,0E0,4.3698978E-1,0E0,3.4068208E0,7.7089024E-1,0E0,0E0,4.450667E0,1.7905834E0,8.995122E-1,0E0,0E0,0E0,0E0,0E0,0E0,0E0],"parents":[2147483647,0,0,1,1,2,2,3,3,5,5,7,7,8,8,11,11,12,12,13,13],"right_children":[2,4,6,8,-1,10,-1,12,14,-1,-1,16,18,20,-1,-1,-1,-1,-1,-1,-1],"split_conditions":[1E0,1E0,1E0,1E0,1.0443651E-1,1E0,-2.5822347E-2,1E0,1E0,-1.20905876E-1,-2.4705792E-2,1E0,1E0,1E0,1.11392595E-1,1.830093E-2,-1.0852869E-1,-7.211384E-2,2.3203397E-2,5.7601243E-2,-2.857245E-2],"split_indices":[80,72,99,81,0,58,0,55,66,0,0,90,14,168,0,0,0,0,0,0,0],"split_type":[0,0,0,0,0,0,0,0,0,0,0,0,0,0,0,0,0,0,0,0,0],"sum_hessian":[6.1725277E1,5.6479897E1,5.2453785E0,5.399335E1,2.4865477E0,3.9971757E0,1.2482028E0,4.926765E1,4.725701E0,2.7485423E0,1.2486333E0,3.9071617E1,1.01960335E1,3.2345512E0,1.4911497E0,3.708191E1,1.9897064E0,8.208081E0,1.9879525E0,1.9891958E0,1.2453554E0],"tree_param":{"num_deleted":"0","num_feature":"178","num_nodes":"21","size_leaf_vector":"1"}},{"base_weights":[-6.642939E-3,8.458667E-2,-8.4524363E-1,2.682371E-2,9.772959E-2,-9.514309E-1,-2.3388349E-2,-2.3030072E-2,9.019576E-2,-1.1220769E-1,-2.4458911E-2,-1.00086294E-1,6.334494E-1,2.7683568E-3,-5.3691912E-2,2.3695586E-2,1.0547651E-1],"categories":[],"categories_nodes":[],"categories_segments":[],"categories_sizes":[],"default_left":[0,0,0,0,0,0,0,0,0,0,0,0,0,0,0,0,0],"id":2,"left_children":[1,3,5,7,-1,9,-1,11,-1,-1,-1,13,15,-1,-1,-1,-1],"loss_changes":[4.865174E0,2.9346545E0,1.8247986E-1,2.4185293E0,0E0,3.2737732E-1,0E0,2.7429943E0,0E0,0E0,0E0,2.7090256E0,7.024052E-1,0E0,0E0,0E0,0E0],"parents":[2147483647,0,0,1,1,2,2,3,3,5,5,7,7,11,11,12,12],"right_children":[2,4,6,8,-1,10,-1,12,-1,-1,-1,14,16,-1,-1,-1,-1],"split_conditions":[1E0,1E0,1E0,1E0,9.772959E-2,1E0,-2.3388349E-2,1E0,9.019576E-2,-1.1220769E-1,-2.4458911E-2,1E0,1E0,2.7683568E-3,-5.3691912E-2,2.3695586E-2,1.0547651E-1],"split_indices":[80,72,7,3,0,32,0,81,0,0,0,55,66,0,0,0,0],"split_type":[0,0,0,0,0,0,0,0,0,0,0,0,0,0,0,0,0],"sum_hessian":[6.1658176E1,5.6419544E1,5.2386303E0,5.3958214E1,2.4613314E0,3.9894493E0,1.2491812E0,5.197125E1,1.9869642E0,2.7404082E0,1.249041E0,4.7270298E1,4.7009506E0,3.7297676E1,9.972625E0,3.2267377E0,1.4742131E0],"tree_param":{"num_deleted":"0","num_feature":"178","num_nodes":"17","size_leaf_vector":"1"}},{"base_weights":[-4.2453753E-3,8.093937E-2,-7.897177E-1,-2.8403832E-2,5.2513087E-1,-8.883738E-1,-2.208796E-2,7.361861E-2,-6.762737E-1,6.531426E-1,-2.8755814E-2,-1.04731135E-1,-2.3095908E-2,1.9023934E-1,-6.159936E-1,-9.3362385E-1,-6.42113E-3,8.2267714E-1,3.6326945E-3,2.8341068E-2,-8.468344E-2,-7.666816E-2,-8.126958E-3,-1.09745204E-1,-2.8123973E-2,9.373421E-2,1.1271914E-2],"categories":[],"categories_nodes":[],"categories_segments":[],"categories_sizes":[],"default_left":[0,0,0,0,0,0,0,0,0,0,0,0,0,0,0,0,0,0,0,0,0,0,0,0,0,0,0],"id":3,"left_children":[1,3,5,7,9,11,-1,13,15,17,-1,-1,-1,19,21,23,-1,25,-1,-1,-1,-1,-1,-1,-1,-1,-1],"loss_changes":[4.249829E0,2.8001838E0,1.5249157E-1,3.1541748E0,1.371645E0,2.7684426E-1,0E0,3.4530523E0,9.620049E-1,1.0300999E0,0E0,0E0,0E0,3.742013E0,4.401548E-1,1.716311E-1,0E0,5.37858E-1,0E0,0E0,0E0,0E0,0E0,0E0,0E0,0E0,0E0],"parents":[2147483647,0,0,1,1,2,2,3,3,4,4,5,5,7,7,8,8,9,9,13,13,14,14,15,15,17,17],"right_children":[2,4,6,8,10,12,-1,14,16,18,-1,-1,-1,20,22,24,-1,26,-1,-1,-1,-1,-1,-1,-1,-1,-1],"split_conditions":[1E0,1E0,1E0,1E0,1E0,1E0,-2.208796E-2,1E0,1E0,1E0,-2.8755814E-2,-1.04731135E-1,-2.3095908E-2,1E0,1E0,1E0,-6.42113E-3,1E0,3.6326945E-3,2.8341068E-2,-8.468344E-2,-7.666816E-2,-8.126958E-3,-1.09745204E-1,-2.8123973E-2,9.373421E-2,1.1271914E-2],"split_indices":[80,97,7,75,43,32,0,158,176,59,0,0,0,144,177,177,0,98,0,0,0,0,0,0,0,0,0],"split_type":[0,0,0,0,0,0,0,0,0,0,0,0,0,0,0,0,0,0,0,0,0,0,0,0,0,0,0],"sum_hessian":[6.1560066E1,5.634625E1,5.2138157E0,4.5966972E1,1.0379279E1,3.9645007E0,1.2493149E0,4.0478966E1,5.4880037E0,9.136458E0,1.242821E0,2.7150342E0,1.2494664E0,3.524312E1,5.2358484E0,3.4936683E0,1.9943352E0,6.9048734E0,2.231585E0,3.300468E1,2.2384396E0,3.746326E0,1.4895223E0,2.2471433E0,1.2465252E0,5.6689982E0,1.2358751E0],"tree_param":{"num_deleted":"0","num_feature":"178","num_nodes":"27","size_leaf_vector":"1"}},{"base_weights":[-9.488219E-3,6.9506906E-2,-7.3977655E-1,1.636216E-2,9.022912E-2,-8.358795E-1,-1.9944333E-2,-2.9523293E-2,8.297536E-2,-1.0138296E-1,-1.7030425E-2,-1.0105934E-1,5.849253E-1,-2.1776615E-2,3.1700667E-2,8.139905E-2,3.8200547E-3],"categories":[],"categories_nodes":[],"categories_segments":[],"categories_sizes":[],"default_left":[0,0,0,0,0,0,0,0,0,0,0,0,0,0,0,0,0],"id":4,"left_children":[1,3,5,7,-1,9,-1,11,-1,-1,-1,13,15,-1,-1,-1,-1],"loss_changes":[3.6502545E0,2.5171533E0,1.5395236E-1,2.0695896E0,0E0,4.1116762E-1,0E0,2.3814545E0,0E0,0E0,0E0,2.4196577E0,6.7736316E-1,0E0,0E0,0E0,0E0],"parents":[2147483647,0,0,1,1,2,2,3,3,5,5,7,7,11,11,12,12],"right_children":[2,4,6,8,-1,10,-1,12,-1,-1,-1,14,16,-1,-1,-1,-1],"split_conditions":[1E0,1E0,1E0,1E0,9.022912E-2,1E0,-1.9944333E-2,1E0,8.297536E-2,-1.0138296E-1,-1.7030425E-2,1E0,1E0,-2.1776615E-2,3.1700667E-2,8.139905E-2,3.8200547E-3],"split_indices":[80,72,99,3,0,58,0,81,0,0,0,58,33,0,0,0,0],"split_type":[0,0,0,0,0,0,0,0,0,0,0,0,0,0,0,0,0],"sum_hessian":[6.1383152E1,5.6207973E1,5.1751814E0,5.3794674E1,2.4132993E0,3.929343E0,1.2458383E0,5.1834274E1,1.9603982E0,2.6875532E0,1.2417898E0,4.7177277E1,4.656999E0,3.7256035E1,9.921239E0,2.9374328E0,1.7195666E0],"tree_param":{"num_deleted":"0","num_feature":"178","num_nodes":"17","size_leaf_vector":"1"}},{"base_weights":[-6.4201322E-3,6.7444794E-2,-6.9366294E-1,-3.37576E-2,4.811089E-1,-7.877757E-1,-1.8013319E-2,5.9474546E-2,-6.229175E-1,6.0118264E-1,-2.7187822E-2,-9.575268E-2,-2.315615E-2,-6.416524E-2,6.8456435E-1,-8.5746163E-1,-6.291268E-3,7.3313516E-1,-9.423796E-3,-1.8154822E-2,7.8929506E-2,1.2592836E-1,-6.519691E-2,-1.0121267E-1,-2.5323808E-2,8.952651E-2,5.8242567E-3],"categories":[],"categories_nodes":[],"categories_segments":[],"categories_sizes":[],"default_left":[0,0,0,0,0,0,0,0,0,0,0,0,0,0,0,0,0,0,0,0,0,0,0,0,0,0,0],"id":5,"left_children":[1,3,5,7,9,11,-1,13,15,17,-1,-1,-1,19,21,23,-1,25,-1,-1,-1,-1,-1,-1,-1,-1,-1],"loss_changes":[3.2066476E0,2.4073982E0,1.5433955E-1,2.6090775E0,1.1844587E0,2.3939586E-1,0E0,3.23895E0,7.977843E-1,9.913876E-1,0E0,0E0,0E0,3.692528E0,6.1305966E0,1.6340828E-1,0E0,8.846998E-1,0E0,0E0,0E0,0E0,0E0,0E0,0E0,0E0,0E0],"parents":[2147483647,0,0,1,1,2,2,3,3,4,4,5,5,7,7,8,8,9,9,13,13,14,14,15,15,17,17],"right_children":[2,4,6,8,10,12,-1,14,16,18,-1,-1,-1,20,22,24,-1,26,-1,-1,-1,-1,-1,-1,-1,-1,-1],"split_conditions":[1E0,1E0,1E0,1E0,1E0,1E0,-1.8013319E-2,1E0,1E0,1E0,-2.7187822E-2,-9.575268E-2,-2.315615E-2,1E0,1E0,1E0,-6.291268E-3,1E0,-9.423796E-3,-1.8154822E-2,7.8929506E-2,1.2592836E-1,-6.519691E-2,-1.0121267E-1,-2.5323808E-2,8.952651E-2,5.8242567E-3],"split_indices":[80,97,7,75,43,54,0,32,176,169,0,0,0,35,177,177,0,59,0,0,0,0,0,0,0,0,0],"split_type":[0,0,0,0,0,0,0,0,0,0,0,0,0,0,0,0,0,0,0,0,0,0,0,0,0,0,0],"sum_hessian":[6.1247204E1,5.6117546E1,5.1296573E0,4.582493E1,1.0292616E1,3.8838394E0,1.2458179E0,4.0340294E1,5.4846344E0,9.050929E0,1.241687E0,2.4228902E0,1.4609494E0,3.442796E1,5.9123363E0,3.491245E0,1.9933896E0,7.56187E0,1.4890589E0,3.0957424E1,3.4705334E0,4.174898E0,1.7374382E0,2.2422123E0,1.2490329E0,5.833866E0,1.728004E0],"tree_param":{"num_deleted":"0","num_feature":"178","num_nodes":"27","size_leaf_vector":"1"}},{"base_weights":[-7.1217194E-3,6.186562E-2,-6.515902E-1,1.1516814E-1,-6.3139385E-1,-7.4437296E-1,-1.6075684E-2,-8.471885E-3,6.2738204E-1,-1.03582084E-1,1.865779E-2,-9.127036E-2,-1.4076741E-2,1.3504155E-1,-4.599858E-1,8.103922E-1,-1.0290197E-2,3.4726594E-2,-4.0194307E-2,-1.514596E-2,-1.322102E-1,1.09037854E-1,7.487235E-3],"categories":[],"categories_nodes":[],"categories_segments":[],"categories_sizes":[],"default_left":[0,0,0,0,0,0,0,0,0,0,0,0,0,0,0,0,0,0,0,0,0,0,0],"id":6,"left_children":[1,3,5,7,9,11,-1,13,15,-1,-1,-1,-1,17,19,21,-1,-1,-1,-1,-1,-1,-1],"loss_changes":[2.7986917E0,2.1773746E0,1.5748954E-1,3.4083638E0,1.5895293E0,3.635788E-1,0E0,2.9309392E0,1.4816241E0,0E0,0E0,0E0,0E0,4.056202E0,2.7003496E0,1.6643262E0,0E0,0E0,0E0,0E0,0E0,0E0,0E0],"parents":[2147483647,0,0,1,1,2,2,3,3,4,4,5,5,7,7,8,8,13,13,14,14,15,15],"right_children":[2,4,6,8,10,12,-1,14,16,-1,-1,-1,-1,18,20,22,-1,-1,-1,-1,-1,-1,-1],"split_conditions":[1E0,1E0,1E0,1E0,1E0,1E0,-1.6075684E-2,1E0,1E0,-1.03582084E-1,1.865779E-2,-9.127036E-2,-1.4076741E-2,1E0,1E0,1E0,-1.0290197E-2,3.4726594E-2,-4.0194307E-2,-1.514596E-2,-1.322102E-1,1.09037854E-1,7.487235E-3],"split_indices":[80,90,99,97,55,58,0,54,169,0,0,0,0,55,141,66,0,0,0,0,0,0,0],"split_type":[0,0,0,0,0,0,0,0,0,0,0,0,0,0,0,0,0,0,0,0,0,0,0],"sum_hessian":[6.1041615E1,5.595581E1,5.0858026E0,5.2735054E1,3.2207565E0,3.8428376E0,1.2429647E0,4.3273098E1,9.461955E0,1.9769644E0,1.2437922E0,2.6044385E0,1.2383991E0,3.336801E1,9.905088E0,7.478211E0,1.9837444E0,2.416926E1,9.1987505E0,8.160402E0,1.7446861E0,5.0669446E0,2.4112663E0],"tree_param":{"num_deleted":"0","num_feature":"178","num_nodes":"23","size_leaf_vector":"1"}},{"base_weights":[-1.0442478E-2,5.3673778E-2,-6.127217E-1,1.3170294E-1,-4.1251728E-1,-7.032946E-1,-1.4542013E-2,1.9116512E-1,-9.482639E-2,-7.031296E-1,9.4433084E-2,-8.618366E-2,-1.3782583E-2,8.617162E-2,7.3728365E-1,-3.2811472E-1,-1.0920326E-1,-1.5775638E-2,3.0603264E-2,2.2441898E-2,-4.789678E-2,1.2380135E-1,-5.919233E-2,1.9753708E-2,-6.097537E-2],"categories":[],"categories_nodes":[],"categories_segments":[],"categories_sizes":[],"default_left":[0,0,0,0,0,0,0,0,0,0,0,0,0,0,0,0,0,0,0,0,0,0,0,0,0],"id":7,"left_children":[1,3,5,7,9,11,-1,13,-1,15,17,-1,-1,19,21,23,-1,-1,-1,-1,-1,-1,-1,-1,-1],"loss_changes":[2.4195178E0,2.1196938E0,1.5281701E-1,3.353268E0,1.3013785E0,3.104453E-1,0E0,2.668625E0,0E0,4.3604517E-1,2.5831732E-1,0E0,0E0,3.3184419E0,5.7587066E0,7.4257874E-1,0E0,0E0,0E0,0E0,0E0,0E0,0E0,0E0,0E0],"parents":[2147483647,0,0,1,1,2,2,3,3,4,4,5,5,7,7,9,9,10,10,13,13,14,14,15,15],"right_children":[2,4,6,8,10,12,-1,14,-1,16,18,-1,-1,20,22,24,-1,-1,-1,-1,-1,-1,-1,-1,-1],"split_conditions":[1E0,1E0,1E0,1E0,1E0,1E0,-1.4542013E-2,1E0,-9.482639E-2,1E0,1E0,-8.618366E-2,-1.3782583E-2,1E0,1E0,1E0,-1.0920326E-1,-1.5775638E-2,3.0603264E-2,2.2441898E-2,-4.789678E-2,1.2380135E-1,-5.919233E-2,1.9753708E-2,-6.097537E-2],"split_indices":[80,75,7,92,176,32,0,32,0,99,67,0,0,89,177,169,0,0,0,0,0,0,0,0,0],"split_type":[0,0,0,0,0,0,0,0,0,0,0,0,0,0,0,0,0,0,0,0,0,0,0,0,0],"sum_hessian":[6.080438E1,5.577742E1,5.026961E0,4.8394787E1,7.3826323E0,3.7877939E0,1.2391667E0,4.66493E1,1.7454854E0,4.4466085E0,2.9360237E0,2.5490105E0,1.2387835E0,4.0098072E1,6.551227E0,3.2023299E0,1.2442787E0,1.4556284E0,1.4803954E0,3.2701385E1,7.3966875E0,4.808434E0,1.7427932E0,1.2213724E0,1.9809575E0],"tree_param":{"num_deleted":"0","num_feature":"178","num_nodes":"25","size_leaf_vector":"1"}},{"base_weights":[-1.4310486E-2,-5.661587E-2,7.960486E-2,-1.2227454E-3,-7.5451666E-1,-4.261243E-2,1.0219151E-1,-9.301036E-2,-1.7157903E-2,-1.03622384E-1,5.993978E-1,-1.4962534E-2,6.0406145E-2,2.4573967E-2,9.217801E-2],"categories":[],"categories_nodes":[],"categories_segments":[],"categories_sizes":[],"default_left":[0,0,0,0,0,0,0,0,0,0,0,0,0,0,0],"id":8,"left_children":[1,3,-1,5,7,9,-1,-1,-1,11,13,-1,-1,-1,-1],"loss_changes":[2.1554356E0,2.2968624E0,0E0,2.4178913E0,2.876165E-1,2.2104657E0,0E0,0E0,0E0,1.7487962E0,3.3297634E-1,0E0,0E0,0E0,0E0],"parents":[2147483647,0,0,1,1,3,3,4,4,5,5,9,9,10,10],"right_children":[2,4,-1,6,8,10,-1,-1,-1,12,14,-1,-1,-1,-1],"split_conditions":[1E0,1E0,7.960486E-2,1E0,1E0,1E0,1.0219151E-1,-9.301036E-2,-1.7157903E-2,1E0,1E0,-1.4962534E-2,6.0406145E-2,2.4573967E-2,9.217801E-2],"split_indices":[3,4,0,71,7,42,0,0,0,72,101,0,0,0,0],"split_type":[0,0,0,0,0,0,0,0,0,0,0,0,0,0,0],"sum_hessian":[6.055804E1,5.843741E1,2.120633E0,5.506833E1,3.3690796E0,5.3848316E1,1.2200112E0,2.1315029E0,1.2375768E0,4.994104E1,3.9072785E0,4.7633213E1,2.3078246E0,2.7036247E0,1.2036539E0],"tree_param":{"num_deleted":"0","num_feature":"178","num_nodes":"15","size_leaf_vector":"1"}},{"base_weights":[-9.044739E-3,4.8957773E-2,-5.6035197E-1,9.763673E-2,-5.7901293E-1,-6.4656854E-1,-1.2880266E-2,-1.686637E-2,5.771919E-1,-9.515387E-2,1.72192E-2,-8.305248E-2,-1.2478334E-2,-1.0134113E-1,7.617909E-1,7.515477E-1,-1.0419058E-2,-4.028616E-3,-1.0427461E-1,2.5264693E-2,1.0665306E-1,1.00110784E-1,9.848744E-3],"categories":[],"categories_nodes":[],"categories_segments":[],"categories_sizes":[],"default_left":[0,0,0,0,0,0,0,0,0,0,0,0,0,0,0,0,0,0,0,0,0,0,0],"id":9,"left_children":[1,3,5,7,9,11,-1,13,15,-1,-1,-1,-1,17,19,21,-1,-1,-1,-1,-1,-1,-1],"loss_changes":[1.9924237E0,1.7842822E0,1.3735521E-1,2.9369807E0,1.342096E0,3.468995E-1,0E0,2.9717603E0,1.3024051E0,0E0,0E0,0E0,0E0,2.2905111E0,4.169953E-1,1.2583609E0,0E0,0E0,0E0,0E0,0E0,0E0,0E0],"parents":[2147483647,0,0,1,1,2,2,3,3,4,4,5,5,7,7,8,8,13,13,14,14,15,15],"right_children":[2,4,6,8,10,12,-1,14,16,-1,-1,-1,-1,18,20,22,-1,-1,-1,-1,-1,-1,-1],"split_conditions":[1E0,1E0,1E0,1E0,1E0,1E0,-1.2880266E-2,1E0,1E0,-9.515387E-2,1.72192E-2,-8.305248E-2,-1.2478334E-2,1E0,1E0,1E0,-1.0419058E-2,-4.028616E-3,-1.0427461E-1,2.5264693E-2,1.0665306E-1,1.00110784E-1,9.848744E-3],"split_indices":[80,90,7,97,55,54,0,35,169,0,0,0,0,133,66,66,0,0,0,0,0,0,0],"split_type":[0,0,0,0,0,0,0,0,0,0,0,0,0,0,0,0,0,0,0,0,0,0,0],"sum_hessian":[6.0449715E1,5.5519733E1,4.929982E0,5.2309345E1,3.210389E0,3.693776E0,1.2362063E0,4.3005722E1,9.303621E0,1.9678437E0,1.2425454E0,2.2935E0,1.400276E0,3.958147E1,3.4242525E0,7.326024E0,1.9775975E0,3.8150036E1,1.4314333E0,1.966979E0,1.4572735E0,4.914899E0,2.4111254E0],"tree_param":{"num_deleted":"0","num_feature":"178","num_nodes":"23","size_leaf_vector":"1"}},{"base_weights":[-9.095737E-3,-4.8731856E-2,7.555609E-2,2.5130643E-3,-7.0100534E-1,-3.6570977E-2,9.739137E-2,-8.664014E-2,-1.5964339E-2,-9.346887E-2,5.648525E-1,-1.4902668E-2,4.5855943E-2,2.3185795E-2,8.7053046E-2],"categories":[],"categories_nodes":[],"categories_segments":[],"categories_sizes":[],"default_left":[0,0,0,0,0,0,0,0,0,0,0,0,0,0,0],"id":10,"left_children":[1,3,-1,5,7,9,-1,-1,-1,11,13,-1,-1,-1,-1],"loss_changes":[1.8933773E0,1.979793E0,0E0,2.1565216E0,2.4796319E-1,1.9234514E0,0E0,0E0,0E0,1.6263254E0,2.9353666E-1,0E0,0E0,0E0,0E0],"parents":[2147483647,0,0,1,1,3,3,4,4,5,5,9,9,10,10],"right_children":[2,4,-1,6,8,10,-1,-1,-1,12,14,-1,-1,-1,-1],"split_conditions":[1E0,1E0,7.555609E-2,1E0,1E0,1E0,9.739137E-2,-8.664014E-2,-1.5964339E-2,1E0,1E0,-1.4902668E-2,4.5855943E-2,2.3185795E-2,8.7053046E-2],"split_indices":[3,4,0,71,7,42,0,0,0,30,101,0,0,0,0],"split_type":[0,0,0,0,0,0,0,0,0,0,0,0,0,0,0],"sum_hessian":[6.0256294E1,5.8176952E1,2.0793433E0,5.4862877E1,3.314075E0,5.3665993E1,1.1968844E0,2.078611E0,1.2354642E0,4.9799297E1,3.8666935E0,4.5908924E1,3.8903756E0,2.6923013E0,1.1743921E0],"tree_param":{"num_deleted":"0","num_feature":"178","num_nodes":"15","size_leaf_vector":"1"}},{"base_weights":[-4.6956884E-3,-5.6329623E-2,5.209718E-1,2.6112491E-2,-5.21687E-1,1.6369861E-1,9.274223E-2,8.8951394E-2,-7.1827644E-1,-7.593284E-1,5.4209284E-3,4.7207866E-2,-3.1529076E-2,1.8037975E-1,-5.047905E-1,-2.4057107E-2,-9.8254204E-2,-9.887144E-2,1.0523063E-2,2.3533544E-2,-5.9342463E-2,-7.996518E-2,2.9451093E-2],"categories":[],"categories_nodes":[],"categories_segments":[],"categories_sizes":[],"default_left":[0,0,0,0,0,0,0,0,0,0,0,0,0,0,0,0,0,0,0,0,0,0,0],"id":11,"left_children":[1,3,5,7,9,11,-1,13,15,17,-1,-1,-1,19,21,-1,-1,-1,-1,-1,-1,-1,-1],"loss_changes":[1.6888455E0,2.1841147E0,6.564448E-1,2.3565407E0,1.2129292E0,7.6576364E-1,0E0,2.5928872E0,2.5920153E-1,1.3192534E0,0E0,0E0,0E0,1.8693161E0,1.7469602E0,0E0,0E0,0E0,0E0,0E0,0E0,0E0,0E0],"parents":[2147483647,0,0,1,1,2,2,3,3,4,4,5,5,7,7,8,8,9,9,13,13,14,14],"right_children":[2,4,6,8,10,12,-1,14,16,18,-1,-1,-1,20,22,-1,-1,-1,-1,-1,-1,-1,-1],"split_conditions":[1E0,1E0,1E0,1E0,1E0,1E0,9.274223E-2,1E0,1E0,1E0,5.4209284E-3,4.7207866E-2,-3.1529076E-2,1E0,1E0,-2.4057107E-2,-9.8254204E-2,-9.887144E-2,1.0523063E-2,2.3533544E-2,-5.9342463E-2,-7.996518E-2,2.9451093E-2],"split_indices":[81,141,66,144,67,168,0,158,55,97,0,0,0,92,138,0,0,0,0,0,0,0,0],"split_type":[0,0,0,0,0,0,0,0,0,0,0,0,0,0,0,0,0,0,0,0,0,0,0],"sum_hessian":[6.014075E1,5.5574738E1,4.5660133E0,4.801275E1,7.5619903E0,3.1765518E0,1.3894618E0,4.5087143E1,2.9256063E0,5.1275926E0,2.434398E0,1.9412048E0,1.235347E0,3.967406E1,5.4130797E0,1.722404E0,1.2032022E0,3.93891E0,1.1886826E0,3.7692974E1,1.9810871E0,3.9540114E0,1.4590682E0],"tree_param":{"num_deleted":"0","num_feature":"178","num_nodes":"23","size_leaf_vector":"1"}},{"base_weights":[-7.223635E-3,4.494457E-2,-5.0895995E-1,1.2865409E-3,7.559201E-2,-5.9229505E-1,-1.0870067E-2,-8.4522426E-2,3.1616315E-1,-7.713872E-2,-1.0218756E-2,4.7602136E-2,-5.056655E-1,5.376786E-1,-6.1476458E-2,1.324749E-2,-8.843874E-2,-7.252446E-2,3.8868483E-2,8.3607145E-2,-4.5294963E-2],"categories":[],"categories_nodes":[],"categories_segments":[],"categories_sizes":[],"default_left":[0,0,0,0,0,0,0,0,0,0,0,0,0,0,0,0,0,0,0,0,0],"id":12,"left_children":[1,3,5,7,-1,9,-1,11,13,-1,-1,15,17,19,-1,-1,-1,-1,-1,-1,-1],"loss_changes":[1.6188005E0,1.7418635E0,1.298691E-1,1.483108E0,0E0,3.2452536E-1,0E0,2.4249406E0,2.7544575E0,0E0,0E0,2.7873945E0,2.322285E0,3.3430579E0,0E0,0E0,0E0,0E0,0E0,0E0,0E0],"parents":[2147483647,0,0,1,1,2,2,3,3,5,5,7,7,8,8,11,11,12,12,13,13],"right_children":[2,4,6,8,-1,10,-1,12,14,-1,-1,16,18,20,-1,-1,-1,-1,-1,-1,-1],"split_conditions":[1E0,1E0,1E0,1E0,7.559201E-2,1E0,-1.0870067E-2,1E0,1E0,-7.713872E-2,-1.0218756E-2,1E0,1E0,1E0,-6.1476458E-2,1.324749E-2,-8.843874E-2,-7.252446E-2,3.8868483E-2,8.3607145E-2,-4.5294963E-2],"split_indices":[80,72,7,58,0,54,0,55,123,0,0,90,138,68,0,0,0,0,0,0,0],"split_type":[0,0,0,0,0,0,0,0,0,0,0,0,0,0,0,0,0,0,0,0,0],"sum_hessian":[5.9972107E1,5.514845E1,4.823657E0,5.2901783E1,2.2466671E0,3.5953221E0,1.2283347E0,4.214748E1,1.07543E1,2.2128146E0,1.3825077E0,3.2757492E1,9.38999E0,9.028406E0,1.7258939E0,3.0809633E1,1.947859E0,7.690833E0,1.6991562E0,7.058342E0,1.9700648E0],"tree_param":{"num_deleted":"0","num_feature":"178","num_nodes":"21","size_leaf_vector":"1"}},{"base_weights":[-9.033887E-3,-4.5198515E-2,6.984665E-2,-9.8127164E-2,4.8446342E-1,-4.357947E-2,-7.6869315E-1,1.382117E-1,8.890849E-2,-8.4913746E-2,9.275864E-2,-1.00019075E-1,-1.336243E-2,4.359522E-2,-3.142897E-2,-9.217945E-4,-4.6227083E-2],"categories":[],"categories_nodes":[],"categories_segments":[],"categories_sizes":[],"default_left":[0,0,0,0,0,0,0,0,0,0,0,0,0,0,0,0,0],"id":13,"left_children":[1,3,-1,5,7,9,11,13,-1,15,-1,-1,-1,-1,-1,-1,-1],"loss_changes":[1.5848024E0,1.6929363E0,0E0,1.9487135E0,6.477653E-1,2.1330585E0,4.568498E-1,6.958935E-1,0E0,1.4240152E0,0E0,0E0,0E0,0E0,0E0,0E0,0E0],"parents":[2147483647,0,0,1,1,3,3,4,4,5,5,6,6,7,7,9,9],"right_children":[2,4,-1,6,8,10,12,14,-1,16,-1,-1,-1,-1,-1,-1,-1],"split_conditions":[1E0,1E0,6.984665E-2,1E0,1E0,1E0,1E0,1E0,8.890849E-2,1E0,9.275864E-2,-1.00019075E-1,-1.336243E-2,4.359522E-2,-3.142897E-2,-9.217945E-4,-4.6227083E-2],"split_indices":[3,81,0,4,66,71,7,33,0,141,0,0,0,0,0,0,0],"split_type":[0,0,0,0,0,0,0,0,0,0,0,0,0,0,0,0,0],"sum_hessian":[5.9705196E1,5.7692307E1,2.0128877E0,5.3191647E1,4.500658E0,5.0175106E1,3.0165424E0,3.1481962E0,1.3524619E0,4.900207E1,1.1730365E0,1.7893498E0,1.2271926E0,1.9208637E0,1.2273326E0,4.1668102E1,7.333969E0],"tree_param":{"num_deleted":"0","num_feature":"178","num_nodes":"17","size_leaf_vector":"1"}},{"base_weights":[-6.422296E-3,-5.301622E-2,5.0643885E-1,2.6272329E-2,-4.9761784E-1,8.228979E-2,-2.6887575E-2,1.0964989E-1,-6.055308E-1,-8.627298E-1,1.5137503E-1,1.6563246E-1,-8.328494E-2,-9.653806E-1,2.7845418E-2,-9.985433E-2,-2.0648547E-2,3.066049E-2,-6.1647324E-3,2.3509158E-2,-5.361084E-2,-1.1490246E-1,-2.6679242E-2],"categories":[],"categories_nodes":[],"categories_segments":[],"categories_sizes":[],"default_left":[0,0,0,0,0,0,0,0,0,0,0,0,0,0,0,0,0,0,0,0,0,0,0],"id":14,"left_children":[1,3,5,7,9,-1,-1,11,13,15,17,19,-1,21,-1,-1,-1,-1,-1,-1,-1,-1,-1],"loss_changes":[1.4732152E0,2.0009682E0,1.4813342E0,2.637437E0,2.1647902E0,0E0,0E0,2.4576018E0,2.1275802E0,2.967763E-1,1.492374E-1,2.1894147E0,0E0,2.549386E-1,0E0,0E0,0E0,0E0,0E0,0E0,0E0,0E0,0E0],"parents":[2147483647,0,0,1,1,2,2,3,3,4,4,7,7,8,8,9,9,10,10,11,11,13,13],"right_children":[2,4,6,8,10,-1,-1,12,14,16,18,20,-1,22,-1,-1,-1,-1,-1,-1,-1,-1,-1],"split_conditions":[1E0,1E0,1E0,1E0,1E0,8.228979E-2,-2.6887575E-2,1E0,1E0,1E0,1E0,1E0,-8.328494E-2,1E0,2.7845418E-2,-9.985433E-2,-2.0648547E-2,3.066049E-2,-6.1647324E-3,2.3509158E-2,-5.361084E-2,-1.1490246E-1,-2.6679242E-2],"split_indices":[2,75,177,122,176,0,0,133,6,66,168,144,0,158,0,0,0,0,0,0,0,0,0],"split_type":[0,0,0,0,0,0,0,0,0,0,0,0,0,0,0,0,0,0,0,0,0,0,0],"sum_hessian":[5.9526985E1,5.5391262E1,4.1357226E0,4.7806538E1,7.5847263E0,2.8933678E0,1.2423549E0,4.296323E1,4.8433065E0,4.6432047E0,2.9415216E0,4.133243E1,1.6308007E0,3.3766658E0,1.4666405E0,3.4148746E0,1.2283301E0,1.4474516E0,1.49407E0,3.8214867E1,3.1175632E0,2.1632202E0,1.2134457E0],"tree_param":{"num_deleted":"0","num_feature":"178","num_nodes":"23","size_leaf_vector":"1"}},{"base_weights":[-1.0197438E-2,-4.4194262E-2,6.626541E-2,-9.166235E-2,4.699538E-1,-3.167718E-2,-9.022178E-2,7.690119E-2,-2.5384352E-2,5.2342318E-2,-4.6137527E-1,-4.1448786E-3,5.43921E-2,-8.033519E-2,1.4257811E-2],"categories":[],"categories_nodes":[],"categories_segments":[],"categories_sizes":[],"default_left":[0,0,0,0,0,0,0,0,0,0,0,0,0,0,0],"id":15,"left_children":[1,3,-1,5,7,9,-1,-1,-1,11,13,-1,-1,-1,-1],"loss_changes":[1.4108967E0,1.4691296E0,0E0,2.612989E0,1.2995431E0,1.8878677E0,0E0,0E0,0E0,2.054766E0,1.8793671E0,0E0,0E0,0E0,0E0],"parents":[2147483647,0,0,1,1,3,3,4,4,5,5,9,9,10,10],"right_children":[2,4,-1,6,8,10,-1,-1,-1,12,14,-1,-1,-1,-1],"split_conditions":[1E0,1E0,6.626541E-2,1E0,1E0,1E0,-9.022178E-2,7.690119E-2,-2.5384352E-2,1E0,1E0,-4.1448786E-3,5.43921E-2,-8.033519E-2,1.4257811E-2],"split_indices":[3,2,0,4,177,75,0,0,0,32,176,0,0,0,0],"split_type":[0,0,0,0,0,0,0,0,0,0,0,0,0,0,0],"sum_hessian":[5.939879E1,5.7431305E1,1.9674841E0,5.3329453E1,4.1018553E0,5.062223E1,2.7072184E0,2.8583682E0,1.2434871E0,4.3077427E1,7.544804E0,3.6944298E1,6.133131E0,4.606378E0,2.938426E0],"tree_param":{"num_deleted":"0","num_feature":"178","num_nodes":"15","size_leaf_vector":"1"}},{"base_weights":[-9.024133E-3,5.7701778E-2,-3.477439E-1,1.1710575E-1,-7.369999E-2,-5.375127E-1,5.829767E-2,-8.495538E-3,5.467958E-1,-6.555766E-1,1.1413508E-2,-6.676986E-2,6.213037E-2,7.7051824E-1,-1.9101102E-2,-8.407831E-1,-5.1926854E-3,-2.5402932E-4,-9.700178E-2,9.792648E-2,1.1546206E-2,-1.09163515E-1,-5.669445E-3],"categories":[],"categories_nodes":[],"categories_segments":[],"categories_sizes":[],"default_left":[0,0,0,0,0,0,0,0,0,0,0,0,0,0,0,0,0,0,0,0,0,0,0],"id":16,"left_children":[1,3,5,7,-1,9,-1,11,13,15,-1,17,-1,19,-1,21,-1,-1,-1,-1,-1,-1,-1],"loss_changes":[1.379625E0,2.499212E0,2.087008E0,2.6178408E0,0E0,7.566025E-1,0E0,1.4527301E0,1.9574919E0,8.1168175E-1,0E0,2.0918126E0,0E0,1.0648441E0,0E0,1.0766745E0,0E0,0E0,0E0,0E0,0E0,0E0,0E0],"parents":[2147483647,0,0,1,1,2,2,3,3,5,5,7,7,8,8,9,9,11,11,13,13,15,15],"right_children":[2,4,6,8,-1,10,-1,12,14,16,-1,18,-1,20,-1,22,-1,-1,-1,-1,-1,-1,-1],"split_conditions":[1E0,1E0,1E0,1E0,-7.369999E-2,1E0,5.829767E-2,1E0,1E0,1E0,1.1413508E-2,1E0,6.213037E-2,1E0,-1.9101102E-2,1E0,-5.1926854E-3,-2.5402932E-4,-9.700178E-2,9.792648E-2,1.1546206E-2,-1.09163515E-1,-5.669445E-3],"split_indices":[89,146,68,168,0,101,0,2,54,33,0,144,0,158,0,98,0,0,0,0,0,0,0],"split_type":[0,0,0,0,0,0,0,0,0,0,0,0,0,0,0,0,0,0,0,0,0,0,0],"sum_hessian":[5.915382E1,5.0111732E1,9.042086E0,4.7419746E1,2.6919858E0,7.861621E0,1.1804643E0,3.745239E1,9.967358E0,6.650645E0,1.210976E0,3.5098743E1,2.3536487E0,7.6141963E0,2.353161E0,4.7886124E0,1.8620327E0,3.370482E1,1.3939226E0,5.3988223E0,2.215374E0,3.3307707E0,1.4578416E0],"tree_param":{"num_deleted":"0","num_feature":"178","num_nodes":"23","size_leaf_vector":"1"}},{"base_weights":[-9.225481E-3,-4.0324118E-2,7.018917E-2,9.916635E-3,-5.378883E-1,-7.279777E-2,3.708406E-1,-7.777259E-2,-1.22255005E-1,-2.1520942E-2,-9.556426E-2,4.869451E-1,-2.1241352E-2,-2.9956004E-2,1.1351952E-2,-7.779043E-3,7.898559E-2,7.007003E-2,-1.8484803E-2],"categories":[],"categories_nodes":[],"categories_segments":[],"categories_sizes":[],"default_left":[0,0,0,0,0,0,0,0,0,0,0,0,0,0,0,0,0,0,0],"id":17,"left_children":[1,3,-1,5,7,9,11,-1,13,15,-1,17,-1,-1,-1,-1,-1,-1,-1],"loss_changes":[1.3545067E0,1.4652697E0,0E0,1.6399205E0,4.4065607E-1,2.0070734E0,7.966896E-1,0E0,1.6581342E-1,2.040839E0,0E0,1.3991561E0,0E0,0E0,0E0,0E0,0E0,0E0,0E0],"parents":[2147483647,0,0,1,1,3,3,4,4,5,5,6,6,8,8,9,9,11,11],"right_children":[2,4,-1,6,8,10,12,-1,14,16,-1,18,-1,-1,-1,-1,-1,-1,-1],"split_conditions":[1E0,1E0,7.018917E-2,1E0,1E0,1E0,1E0,-7.777259E-2,1E0,1E0,-9.556426E-2,1E0,-2.1241352E-2,-2.9956004E-2,1.1351952E-2,-7.779043E-3,7.898559E-2,7.007003E-2,-1.8484803E-2],"split_indices":[71,80,0,97,169,133,30,0,54,29,0,59,0,0,0,0,0,0,0],"split_type":[0,0,0,0,0,0,0,0,0,0,0,0,0,0,0,0,0,0,0],"sum_hessian":[5.896912E1,5.74021E1,1.567019E0,5.3027775E1,4.374326E0,4.3790443E1,9.23733E0,2.2213387E0,2.1529875E0,4.2354797E1,1.4356471E0,7.8415E0,1.395831E0,1.0744518E0,1.0785357E0,4.045345E1,1.9013467E0,5.9160614E0,1.9254382E0],"tree_param":{"num_deleted":"0","num_feature":"178","num_nodes":"19","size_leaf_vector":"1"}},{"base_weights":[-8.600065E-3,-4.1008E-2,6.371992E-2,-8.708847E-2,4.2519292E-1,3.0740083E-3,-4.0393585E-1,7.458786E-2,1.0113029E-3,6.2145095E-2,-8.2807474E-2,-5.715342E-1,2.8688986E-2,-2.4040228E-4,7.381586E-2,-7.578342E-2,2.9217426E-2],"categories":[],"categories_nodes":[],"categories_segments":[],"categories_sizes":[],"default_left":[0,0,0,0,0,0,0,0,0,0,0,0,0,0,0,0,0],"id":18,"left_children":[1,3,-1,5,7,9,11,-1,-1,13,-1,15,-1,-1,-1,-1,-1],"loss_changes":[1.2775435E0,1.2803558E0,0E0,1.5296032E0,7.080562E-1,2.1449783E0,1.537016E0,0E0,0E0,1.7795651E0,0E0,1.810853E0,0E0,0E0,0E0,0E0,0E0],"parents":[2147483647,0,0,1,1,3,3,4,4,5,5,6,6,9,9,11,11],"right_children":[2,4,-1,6,8,10,12,-1,-1,14,-1,16,-1,-1,-1,-1,-1],"split_conditions":[1E0,1E0,6.371992E-2,1E0,1E0,1E0,1E0,7.458786E-2,1.0113029E-3,1E0,-8.2807474E-2,1E0,2.8688986E-2,-2.4040228E-4,7.381586E-2,-7.578342E-2,2.9217426E-2],"split_indices":[3,81,0,55,88,90,99,0,0,35,0,58,0,0,0,0,0],"split_type":[0,0,0,0,0,0,0,0,0,0,0,0,0,0,0,0,0],"sum_hessian":[5.8793205E1,5.687554E1,1.9176662E0,5.249955E1,4.3759923E0,4.1640556E1,1.0858991E1,2.0191047E0,2.3568876E0,3.974131E1,1.8992491E0,8.8778515E0,1.9811391E0,3.718696E1,2.5543513E0,7.403512E0,1.4743395E0],"tree_param":{"num_deleted":"0","num_feature":"178","num_nodes":"17","size_leaf_vector":"1"}},{"base_weights":[-5.8578826E-3,5.682922E-2,-3.2310513E-1,1.1178958E-1,-6.7378736E-1,-4.973016E-1,5.3650904E-2,1.61845E-1,-8.133068E-2,-2.2174908E-2,-8.0991164E-2,-6.47025E-1,3.2846094E-3,4.5421906E-2,5.526017E-1,-7.913471E-1,3.7828926E-3,-2.1445758E-3,9.466239E-2,7.921299E-2,-2.035312E-2,-4.3534823E-2,-1.1596265E-1],"categories":[],"categories_nodes":[],"categories_segments":[],"categories_sizes":[],"default_left":[0,0,0,0,0,0,0,0,0,0,0,0,0,0,0,0,0,0,0,0,0,0,0],"id":19,"left_children":[1,3,5,7,9,11,-1,13,-1,-1,-1,15,-1,17,19,21,-1,-1,-1,-1,-1,-1,-1],"loss_changes":[1.203595E0,2.10775E0,1.7616535E0,2.3511372E0,4.705429E-2,7.2132015E-1,0E0,2.081454E0,0E0,0E0,0E0,7.1446943E-1,0E0,2.2358172E0,2.0701275E0,2.5110602E-1,0E0,0E0,0E0,0E0,0E0,0E0,0E0],"parents":[2147483647,0,0,1,1,2,2,3,3,4,4,5,5,7,7,11,11,13,13,14,14,15,15],"right_children":[2,4,6,8,10,12,-1,14,-1,-1,-1,16,-1,18,20,22,-1,-1,-1,-1,-1,-1,-1],"split_conditions":[1E0,1E0,1E0,1E0,1E0,1E0,5.3650904E-2,1E0,-8.133068E-2,-2.2174908E-2,-8.0991164E-2,1E0,3.2846094E-3,1E0,1E0,1E0,3.7828926E-3,-2.1445758E-3,9.466239E-2,7.921299E-2,-2.035312E-2,-4.3534823E-2,-1.1596265E-1],"split_indices":[89,146,68,16,54,67,0,168,0,0,0,6,0,81,54,176,0,0,0,0,0,0,0],"split_type":[0,0,0,0,0,0,0,0,0,0,0,0,0,0,0,0,0,0,0,0,0,0,0],"sum_hessian":[5.8597454E1,4.9614624E1,8.982833E0,4.6931232E1,2.6833913E0,7.819694E0,1.1631389E0,4.530491E1,1.626322E0,1.2295035E0,1.4538877E0,5.925705E0,1.8939892E0,3.576518E1,9.53973E0,4.765875E0,1.1598301E0,3.4203537E1,1.5616415E0,7.2085843E0,2.331146E0,3.5328977E0,1.232977E0],"tree_param":{"num_deleted":"0","num_feature":"178","num_nodes":"23","size_leaf_vector":"1"}},{"base_weights":[-7.406017E-3,-3.6630597E-2,6.636808E-2,-1.1537596E-1,2.3774542E-1,-2.0095342E-1,2.4593551E-1,3.835311E-2,1.0352727E-1,-2.5801328E-1,5.5780288E-2,-3.3511735E-2,9.973922E-2,3.4717906E-1,-7.92876E-2,-3.5726145E-2,1.6817851E-2,2.2392608E-2,-7.7546686E-2,6.3392065E-2,-6.841676E-2],"categories":[],"categories_nodes":[],"categories_segments":[],"categories_sizes":[],"default_left":[0,0,0,0,0,0,0,0,0,0,0,0,0,0,0,0,0,0,0,0,0],"id":20,"left_children":[1,3,-1,5,7,9,11,13,-1,15,-1,17,-1,19,-1,-1,-1,-1,-1,-1,-1],"loss_changes":[1.189523E0,1.2779949E0,0E0,1.4608268E0,2.0647836E0,1.7655591E0,1.9634355E0,3.2596211E0,0E0,1.5625334E0,0E0,1.6380972E0,0E0,3.1460986E0,0E0,0E0,0E0,0E0,0E0,0E0,0E0],"parents":[2147483647,0,0,1,1,3,3,4,4,5,5,6,6,7,7,9,9,11,11,13,13],"right_children":[2,4,-1,6,8,10,12,14,-1,16,-1,18,-1,20,-1,-1,-1,-1,-1,-1,-1],"split_conditions":[1E0,1E0,6.636808E-2,1E0,1E0,1E0,1E0,1E0,1.0352727E-1,1E0,5.5780288E-2,1E0,9.973922E-2,1E0,-7.92876E-2,-3.5726145E-2,1.6817851E-2,2.2392608E-2,-7.7546686E-2,6.3392065E-2,-6.841676E-2],"split_indices":[71,66,0,97,35,15,99,55,0,32,0,80,0,141,0,0,0,0,0,0,0],"split_type":[0,0,0,0,0,0,0,0,0,0,0,0,0,0,0,0,0,0,0,0,0],"sum_hessian":[5.841251E1,5.688087E1,1.53164E0,4.464682E1,1.2234051E1,3.6455963E1,8.190858E0,1.0625601E1,1.6084497E0,3.451995E1,1.9360112E0,6.666984E0,1.5238739E0,8.17185E0,2.4537508E0,2.8130808E1,6.389145E0,5.4679513E0,1.1990327E0,6.695634E0,1.476216E0],"tree_param":{"num_deleted":"0","num_feature":"178","num_nodes":"21","size_leaf_vector":"1"}},{"base_weights":[-3.7823778E-3,5.4863982E-2,-3.430245E-1,-5.642486E-3,6.8989444E-1,-6.339609E-1,1.5093906E-1,4.8604365E-2,-8.5007325E-2,9.069615E-2,2.5542644E-3,-2.0327625E-1,-1.05609596E-1,3.4122698E-2,-1.0970825E-2,1.6044217E-1,-4.0015072E-1,1.9506011E-2,-4.3585338E-2,2.3761336E-2,-7.376571E-2,-5.5055052E-2,3.944754E-2],"categories":[],"categories_nodes":[],"categories_segments":[],"categories_sizes":[],"default_left":[0,0,0,0,0,0,0,0,0,0,0,0,0,0,0,0,0,0,0,0,0,0,0],"id":21,"left_children":[1,3,5,7,9,11,13,15,-1,-1,-1,17,-1,-1,-1,19,21,-1,-1,-1,-1,-1,-1],"loss_changes":[1.1949613E0,1.9736791E0,1.3677281E0,2.2308073E0,6.2113047E-1,8.330245E-1,2.4022102E-1,2.3657193E0,0E0,0E0,0E0,4.6400845E-1,0E0,0E0,0E0,2.7689857E0,1.3447537E0,0E0,0E0,0E0,0E0,0E0,0E0],"parents":[2147483647,0,0,1,1,2,2,3,3,4,4,5,5,6,6,7,7,11,11,15,15,16,16],"right_children":[2,4,6,8,10,12,14,16,-1,-1,-1,18,-1,-1,-1,20,22,-1,-1,-1,-1,-1,-1],"split_conditions":[1E0,1E0,1E0,1E0,1E0,1E0,1E0,1E0,-8.5007325E-2,9.069615E-2,2.5542644E-3,1E0,-1.05609596E-1,3.4122698E-2,-1.0970825E-2,1E0,1E0,1.9506011E-2,-4.3585338E-2,2.3761336E-2,-7.376571E-2,-5.5055052E-2,3.944754E-2],"split_indices":[75,35,176,92,101,99,168,89,0,0,0,169,0,0,0,146,32,0,0,0,0,0,0],"split_type":[0,0,0,0,0,0,0,0,0,0,0,0,0,0,0,0,0,0,0,0,0,0,0],"sum_hessian":[5.811652E1,5.0265213E1,7.851306E0,4.6797413E1,3.4677992E0,4.7627234E0,3.088582E0,4.4858135E1,1.9392782E0,2.338535E0,1.1292641E0,3.0908337E0,1.67189E0,1.6065524E0,1.4820298E0,3.6423275E1,8.43486E0,1.1988556E0,1.891978E0,3.4218407E1,2.2048662E0,7.350736E0,1.0841247E0],"tree_param":{"num_deleted":"0","num_feature":"178","num_nodes":"23","size_leaf_vector":"1"}},{"base_weights":[-6.2187314E-3,-3.605827E-2,5.947533E-2,1.7493627E-3,-5.454975E-1,-2.9969621E-2,8.035835E-2,-7.0954144E-2,-7.653536E-3,-7.993241E-2,5.0776714E-1,-1.1648272E-2,6.6860095E-2,2.4463376E-2,7.249983E-2],"categories":[],"categories_nodes":[],"categories_segments":[],"categories_sizes":[],"default_left":[0,0,0,0,0,0,0,0,0,0,0,0,0,0,0],"id":22,"left_children":[1,3,-1,5,7,9,-1,-1,-1,11,13,-1,-1,-1,-1],"loss_changes":[1.0770813E0,1.0992891E0,0E0,1.399566E0,2.4902093E-1,1.4642041E0,0E0,0E0,0E0,1.4279761E0,8.7908864E-2,0E0,0E0,0E0,0E0],"parents":[2147483647,0,0,1,1,3,3,4,4,5,5,9,9,10,10],"right_children":[2,4,-1,6,8,10,-1,-1,-1,12,14,-1,-1,-1,-1],"split_conditions":[1E0,1E0,5.947533E-2,1E0,1E0,1E0,8.035835E-2,-7.0954144E-2,-7.653536E-3,1E0,1E0,-1.1648272E-2,6.6860095E-2,2.4463376E-2,7.249983E-2],"split_indices":[3,4,0,71,7,42,0,0,0,116,101,0,0,0,0],"split_type":[0,0,0,0,0,0,0,0,0,0,0,0,0,0,0],"sum_hessian":[5.7866436E1,5.6024693E1,1.8417451E0,5.308183E1,2.9428604E0,5.1987915E1,1.0939163E0,1.8001577E0,1.1427027E0,4.8347183E1,3.6407323E0,4.690141E1,1.4457748E0,2.6079056E0,1.0328267E0],"tree_param":{"num_deleted":"0","num_feature":"178","num_nodes":"15","size_leaf_vector":"1"}},{"base_weights":[-1.9310903E-3,5.1943976E-2,-3.140822E-1,-4.369141E-3,6.4686906E-1,-5.902973E-1,1.4832024E-1,4.6181314E-2,-7.9433106E-2,8.6121365E-2,4.7251783E-4,-1.8103877E-1,-9.993999E-2,3.28091E-2,-9.968046E-3,1.23920105E-1,-5.119959E-1,1.2423932E-2,-5.11969E-2,2.3532197E-2,-3.2957297E-2,-8.4857546E-2,2.8729081E-2],"categories":[],"categories_nodes":[],"categories_segments":[],"categories_sizes":[],"default_left":[0,0,0,0,0,0,0,0,0,0,0,0,0,0,0,0,0,0,0,0,0,0,0],"id":23,"left_children":[1,3,5,7,9,11,13,15,-1,-1,-1,17,-1,-1,-1,19,21,-1,-1,-1,-1,-1,-1],"loss_changes":[1.0038686E0,1.7093447E0,1.2096334E0,1.9345498E0,6.031071E-1,7.7353644E-1,2.1480735E-1,2.0426896E0,0E0,0E0,0E0,4.74887E-1,0E0,0E0,0E0,2.1408992E0,1.7963027E0,0E0,0E0,0E0,0E0,0E0,0E0],"parents":[2147483647,0,0,1,1,2,2,3,3,4,4,5,5,6,6,7,7,11,11,15,15,16,16],"right_children":[2,4,6,8,10,12,14,16,-1,-1,-1,18,-1,-1,-1,20,22,-1,-1,-1,-1,-1,-1],"split_conditions":[1E0,1E0,1E0,1E0,1E0,1E0,1E0,1E0,-7.9433106E-2,8.6121365E-2,4.7251783E-4,1E0,-9.993999E-2,3.28091E-2,-9.968046E-3,1E0,1E0,1.2423932E-2,-5.11969E-2,2.3532197E-2,-3.2957297E-2,-8.4857546E-2,2.8729081E-2],"split_indices":[75,35,176,92,101,99,168,122,0,0,0,139,0,0,0,89,6,0,0,0,0,0,0],"split_type":[0,0,0,0,0,0,0,0,0,0,0,0,0,0,0,0,0,0,0,0,0,0,0],"sum_hessian":[5.772298E1,4.9937683E1,7.7852955E0,4.652635E1,3.4113333E0,4.7007346E0,3.084561E0,4.4613056E1,1.9132943E0,2.3018374E0,1.109496E0,3.0710452E0,1.6296895E0,1.6010488E0,1.4835122E0,3.984213E1,4.7709255E0,1.9223145E0,1.1487306E0,3.2371155E1,7.470976E0,3.3138134E0,1.4571122E0],"tree_param":{"num_deleted":"0","num_feature":"178","num_nodes":"23","size_leaf_vector":"1"}},{"base_weights":[-4.74159E-3,3.0835072E-2,-4.6736413E-1,-2.0662468E-2,6.400102E-1,1.7083444E-4,-9.19857E-2,2.9271644E-2,-7.397638E-1,1.6800253E-2,9.190901E-2,7.201486E-2,-7.6938756E-2,-1.56147545E-2,-9.919915E-2,1.5689068E-2,-3.048403E-2],"categories":[],"categories_nodes":[],"categories_segments":[],"categories_sizes":[],"default_left":[0,0,0,0,0,0,0,0,0,0,0,0,0,0,0,0,0],"id":24,"left_children":[1,3,5,7,9,-1,-1,11,13,-1,-1,15,-1,-1,-1,-1,-1],"loss_changes":[9.770649E-1,1.7465001E0,9.012352E-1,1.8857278E0,4.170158E-1,0E0,0E0,1.7453429E0,3.4689462E-1,0E0,0E0,1.58007E0,0E0,0E0,0E0,0E0,0E0],"parents":[2147483647,0,0,1,1,2,2,3,3,4,4,7,7,8,8,11,11],"right_children":[2,4,6,8,10,-1,-1,12,14,-1,-1,16,-1,-1,-1,-1,-1],"split_conditions":[1E0,1E0,1E0,1E0,1E0,1.7083444E-4,-9.19857E-2,1E0,1E0,1.6800253E-2,9.190901E-2,1E0,-7.6938756E-2,-1.56147545E-2,-9.919915E-2,1.5689068E-2,-3.048403E-2],"split_indices":[90,35,51,146,66,0,0,16,54,0,0,89,0,0,0,0,0],"split_type":[0,0,0,0,0,0,0,0,0,0,0,0,0,0,0,0,0],"sum_hessian":[5.7489525E1,5.4250862E1,3.2386599E0,5.091294E1,3.3379216E0,2.079348E0,1.1593119E0,4.8504128E1,2.4088135E0,1.8355108E0,1.5024107E0,4.6903732E1,1.6003973E0,1.2154717E0,1.1933417E0,3.8758236E1,8.145495E0],"tree_param":{"num_deleted":"0","num_feature":"178","num_nodes":"17","size_leaf_vector":"1"}},{"base_weights":[-7.5323023E-3,-3.5277143E-2,5.5903565E-2,-7.58897E-2,4.0779275E-1,-2.808261E-2,-7.5100714E-1,2.8732698E-2,8.854648E-2,4.7031593E-2,-4.1423887E-1,-8.786535E-2,-2.212931E-2,2.506834E-2,-2.4457421E-2,8.766189E-3,-7.5698525E-2,-6.8761095E-2,7.3128897E-3],"categories":[],"categories_nodes":[],"categories_segments":[],"categories_sizes":[],"default_left":[0,0,0,0,0,0,0,0,0,0,0,0,0,0,0,0,0,0,0],"id":25,"left_children":[1,3,-1,5,7,9,11,13,-1,15,17,-1,-1,-1,-1,-1,-1,-1,-1],"loss_changes":[9.363818E-1,1.0482047E0,0E0,1.6775268E0,8.6244804E-1,1.475207E0,3.8261056E-2,2.8985488E-1,0E0,1.4682095E0,1.1527272E0,0E0,0E0,0E0,0E0,0E0,0E0,0E0,0E0],"parents":[2147483647,0,0,1,1,3,3,4,4,5,5,6,6,7,7,9,9,10,10],"right_children":[2,4,-1,6,8,10,12,14,-1,16,18,-1,-1,-1,-1,-1,-1,-1,-1],"split_conditions":[1E0,1E0,5.5903565E-2,1E0,1E0,1E0,1E0,1E0,8.854648E-2,1E0,1E0,-8.786535E-2,-2.212931E-2,2.506834E-2,-2.4457421E-2,8.766189E-3,-7.5698525E-2,-6.8761095E-2,7.3128897E-3],"split_indices":[3,2,0,4,88,75,67,168,0,133,176,0,0,0,0,0,0,0,0],"split_type":[0,0,0,0,0,0,0,0,0,0,0,0,0,0,0,0,0,0,0],"sum_hessian":[5.7314205E1,5.5532513E1,1.7816925E0,5.162884E1,3.9036708E0,4.9187336E1,2.441506E0,2.767585E0,1.1360857E0,4.191277E1,7.274566E0,1.4365948E0,1.0049112E0,1.5729666E0,1.1946186E0,4.0744736E1,1.1680303E0,4.3972273E0,2.8773386E0],"tree_param":{"num_deleted":"0","num_feature":"178","num_nodes":"19","size_leaf_vector":"1"}},{"base_weights":[-8.438237E-3,5.7736248E-2,-2.4263881E-1,1.0612357E-1,-7.2610974E-2,-3.9954004E-1,4.4167712E-2,1.615273E-1,-6.1638117E-2,-6.5131927E-1,3.9373677E-2,5.795078E-2,5.277315E-1,-8.087149E-1,1.799411E-2,-6.557844E-3,5.1746853E-2,1.0518705E-1,6.7492225E-3,-1.01507366E-1,1.4900225E-2],"categories":[],"categories_nodes":[],"categories_segments":[],"categories_sizes":[],"default_left":[0,0,0,0,0,0,0,0,0,0,0,0,0,0,0,0,0,0,0,0,0],"id":26,"left_children":[1,3,5,7,-1,9,-1,11,-1,13,-1,15,17,19,-1,-1,-1,-1,-1,-1,-1],"loss_changes":[9.143588E-1,1.8256792E0,1.5712819E0,1.8726847E0,0E0,2.4720159E0,0E0,1.5599427E0,0E0,1.2964954E0,0E0,1.9531796E0,2.1294925E0,1.6490178E0,0E0,0E0,0E0,0E0,0E0,0E0,0E0],"parents":[2147483647,0,0,1,1,2,2,3,3,5,5,7,7,9,9,11,11,12,12,13,13],"right_children":[2,4,6,8,-1,10,-1,12,-1,14,-1,16,18,20,-1,-1,-1,-1,-1,-1,-1],"split_conditions":[1E0,1E0,1E0,1E0,-7.2610974E-2,1E0,4.4167712E-2,1E0,-6.1638117E-2,1E0,3.9373677E-2,1E0,1E0,1E0,1.799411E-2,-6.557844E-3,5.1746853E-2,1.0518705E-1,6.7492225E-3,-1.01507366E-1,1.4900225E-2],"split_indices":[55,90,58,11,0,138,0,98,0,74,0,97,169,100,0,0,0,0,0,0,0],"split_type":[0,0,0,0,0,0,0,0,0,0,0,0,0,0,0,0,0,0,0,0,0],"sum_hessian":[5.7094193E1,4.5103466E1,1.1990724E1,4.3295425E1,1.8080429E0,1.0092779E1,1.897944E0,4.0933E1,2.362426E0,7.797023E0,2.2957568E0,3.281103E1,8.121967E0,6.578528E0,1.2184949E0,2.6535067E1,6.2759647E0,3.1963496E0,4.925617E0,5.363063E0,1.2154647E0],"tree_param":{"num_deleted":"0","num_feature":"178","num_nodes":"21","size_leaf_vector":"1"}},{"base_weights":[-6.97329E-3,-3.1976238E-2,5.806774E-2,-7.016017E-2,3.8935208E-1,-1.6848799E-2,-4.5307022E-1,2.5190141E-2,8.5177235E-2,6.264682E-2,-4.6219698E-1,-8.305561E-2,3.7742935E-2,2.337423E-2,-2.2862991E-2,1.1255539E-2,-7.1678154E-2,-7.165023E-2,8.821663E-3],"categories":[],"categories_nodes":[],"categories_segments":[],"categories_sizes":[],"default_left":[0,0,0,0,0,0,0,0,0,0,0,0,0,0,0,0,0,0,0],"id":27,"left_children":[1,3,-1,5,7,9,11,13,-1,15,17,-1,-1,-1,-1,-1,-1,-1,-1],"loss_changes":[8.6768264E-1,9.343531E-1,0E0,1.0649326E0,7.931846E-1,1.6985527E0,2.314445E0,2.512488E-1,0E0,1.6715802E0,1.079746E0,0E0,0E0,0E0,0E0,0E0,0E0,0E0,0E0],"parents":[2147483647,0,0,1,1,3,3,4,4,5,5,6,6,7,7,9,9,10,10],"right_children":[2,4,-1,6,8,10,12,14,-1,16,18,-1,-1,-1,-1,-1,-1,-1,-1],"split_conditions":[1E0,1E0,5.806774E-2,1E0,1E0,1E0,1E0,1E0,8.5177235E-2,1E0,1E0,-8.305561E-2,3.7742935E-2,2.337423E-2,-2.2862991E-2,1.1255539E-2,-7.1678154E-2,-7.165023E-2,8.821663E-3],"split_indices":[71,2,0,122,88,75,6,168,0,133,168,0,0,0,0,0,0,0,0],"split_type":[0,0,0,0,0,0,0,0,0,0,0,0,0,0,0,0,0,0,0],"sum_hessian":[5.6790432E1,5.537976E1,1.4106728E0,5.1542107E1,3.8376544E0,4.615947E1,5.3826375E0,2.7368355E0,1.1008188E0,3.9897083E1,6.262386E0,3.7005591E0,1.6820782E0,1.5458142E0,1.1910213E0,3.8300224E1,1.5968581E0,4.0769687E0,2.1854172E0],"tree_param":{"num_deleted":"0","num_feature":"178","num_nodes":"19","size_leaf_vector":"1"}},{"base_weights":[-6.7407964E-3,-3.289263E-2,5.3160407E-2,-5.7259575E-2,5.960787E-2,-1.3580984E-2,-6.46745E-1,-6.446803E-2,4.3094954E-1,-3.0017372E-3,-9.8444395E-2,-1.1341834E-2,4.2665977E-2,6.28638E-2,-5.0284044E-4],"categories":[],"categories_nodes":[],"categories_segments":[],"categories_sizes":[],"default_left":[0,0,0,0,0,0,0,0,0,0,0,0,0,0,0],"id":28,"left_children":[1,3,-1,5,-1,7,9,11,13,-1,-1,-1,-1,-1,-1],"loss_changes":[8.2853836E-1,8.905746E-1,0E0,1.3998718E0,0E0,1.2030908E0,7.5201106E-1,1.1900904E0,4.7434127E-1,0E0,0E0,0E0,0E0,0E0,0E0],"parents":[2147483647,0,0,1,1,3,3,5,5,6,6,7,7,8,8],"right_children":[2,4,-1,6,-1,8,10,12,14,-1,-1,-1,-1,-1,-1],"split_conditions":[1E0,1E0,5.3160407E-2,1E0,5.960787E-2,1E0,1E0,1E0,1E0,-3.0017372E-3,-9.8444395E-2,-1.1341834E-2,4.2665977E-2,6.28638E-2,-5.0284044E-4],"split_indices":[3,167,0,160,0,15,54,81,101,0,0,0,0,0,0],"split_type":[0,0,0,0,0,0,0,0,0,0,0,0,0,0,0],"sum_hessian":[5.6608463E1,5.488133E1,1.7271366E0,5.3709534E1,1.1717954E0,5.0956863E1,2.752668E0,4.6489964E1,4.4669023E0,1.3592341E0,1.3934337E0,4.2975677E1,3.514285E0,2.7692976E0,1.6976047E0],"tree_param":{"num_deleted":"0","num_feature":"178","num_nodes":"15","size_leaf_vector":"1"}},{"base_weights":[-4.2306175E-3,-3.3072352E-2,4.662559E-1,-5.825441E-2,5.4675173E-2,1.6498752E-3,7.5096965E-2,-1.2830054E-2,-4.326996E-1,-5.4546133E-2,9.217525E-2,-7.1421164E-1,2.8922906E-2,1.0076197E-3,-4.9847227E-2,-1.2371758E-1,2.8666932E-2],"categories":[],"categories_nodes":[],"categories_segments":[],"categories_sizes":[],"default_left":[0,0,0,0,0,0,0,0,0,0,0,0,0,0,0,0,0],"id":29,"left_children":[1,3,5,7,-1,-1,-1,9,11,13,-1,15,-1,-1,-1,-1,-1],"loss_changes":[7.954179E-1,8.362967E-1,4.2124557E-1,9.079161E-1,0E0,0E0,0E0,1.9577439E0,1.3811754E0,1.3756887E0,0E0,2.6820245E0,0E0,0E0,0E0,0E0,0E0],"parents":[2147483647,0,0,1,1,2,2,3,3,7,7,8,8,9,9,11,11],"right_children":[2,4,6,8,-1,-1,-1,10,12,14,-1,16,-1,-1,-1,-1,-1],"split_conditions":[1E0,1E0,1E0,1E0,5.4675173E-2,1.6498752E-3,7.5096965E-2,1E0,1E0,1E0,9.217525E-2,1E0,2.8922906E-2,1.0076197E-3,-4.9847227E-2,-1.2371758E-1,2.8666932E-2],"split_indices":[72,71,98,43,0,0,0,86,88,122,0,58,0,0,0,0,0],"split_type":[0,0,0,0,0,0,0,0,0,0,0,0,0,0,0,0,0],"sum_hessian":[5.648106E1,5.4094658E1,2.3864014E0,5.2705177E1,1.3894819E0,1.3351841E0,1.0512173E0,4.792554E1,4.779636E0,4.677914E1,1.1464003E0,3.446415E0,1.3332207E0,4.1687927E1,5.0912104E0,2.1085844E0,1.3378305E0],"tree_param":{"num_deleted":"0","num_feature":"178","num_nodes":"17","size_leaf_vector":"1"}},{"base_weights":[-1.9221507E-3,5.9710614E-2,-2.2092962E-1,1.0391651E-1,-6.6680394E-2,-5.951473E-2,-9.809815E-2,1.8136719E-1,-3.1169787E-1,1.5844393E-1,-6.594551E-2,4.6179146E-2,6.639669E-1,1.5474245E-1,-8.492544E-2,3.3282757E-1,-5.6590356E-2,-1.24610355E-2,5.5245984E-2,8.449548E-2,-6.7328042E-3,-3.8655274E-2,8.4034465E-2,9.384032E-3,8.850647E-2],"categories":[],"categories_nodes":[],"categories_segments":[],"categories_sizes":[],"default_left":[0,0,0,0,0,0,0,0,0,0,0,0,0,0,0,0,0,0,0,0,0,0,0,0,0],"id":30,"left_children":[1,3,5,7,-1,9,-1,11,13,15,-1,17,19,21,-1,23,-1,-1,-1,-1,-1,-1,-1,-1,-1],"loss_changes":[7.870991E-1,1.5315589E0,1.5125012E0,1.4659274E0,0E0,1.6247241E0,0E0,2.4184282E0,1.9481272E0,1.3673778E0,0E0,2.6973665E0,1.1342232E0,2.0784252E0,0E0,9.929108E-1,0E0,0E0,0E0,0E0,0E0,0E0,0E0,0E0,0E0],"parents":[2147483647,0,0,1,1,2,2,3,3,5,5,7,7,8,8,9,9,11,11,12,12,13,13,15,15],"right_children":[2,4,6,8,-1,10,-1,12,14,16,-1,18,20,22,-1,24,-1,-1,-1,-1,-1,-1,-1,-1,-1],"split_conditions":[1E0,1E0,1E0,1E0,-6.6680394E-2,1E0,-9.809815E-2,1E0,1E0,1E0,-6.594551E-2,1E0,1E0,1E0,-8.492544E-2,1E0,-5.6590356E-2,-1.24610355E-2,5.5245984E-2,8.449548E-2,-6.7328042E-3,-3.8655274E-2,8.4034465E-2,9.384032E-3,8.850647E-2],"split_indices":[55,90,140,141,0,33,0,66,54,122,0,98,15,67,0,138,0,0,0,0,0,0,0,0,0],"split_type":[0,0,0,0,0,0,0,0,0,0,0,0,0,0,0,0,0,0,0,0,0,0,0,0,0],"sum_hessian":[5.633481E1,4.4530468E1,1.1804341E1,4.2784164E1,1.7463027E0,1.062597E1,1.178371E0,3.6538708E1,6.245455E0,8.334091E0,2.291879E0,2.9399012E1,7.139698E0,3.7252102E0,2.5202446E0,7.1526375E0,1.1814535E0,2.2546883E1,6.852129E0,5.598664E0,1.541034E0,2.3254282E0,1.399782E0,5.808756E0,1.3438814E0],"tree_param":{"num_deleted":"0","num_feature":"178","num_nodes":"25","size_leaf_vector":"1"}},{"base_weights":[-3.5617263E-3,2.268523E-2,-5.1961657E-2,-6.829583E-3,7.257155E-2,-3.8673222E-2,5.6838967E-2,-6.848134E-2,6.0283687E-2,1.0130982E-3,-3.3259865E-2],"categories":[],"categories_nodes":[],"categories_segments":[],"categories_sizes":[],"default_left":[0,0,0,0,0,0,0,0,0,0,0],"id":31,"left_children":[1,3,-1,5,-1,7,-1,9,-1,-1,-1],"loss_changes":[7.8394824E-1,1.150484E0,0E0,1.0106091E0,0E0,1.0371324E0,0E0,1.0552946E0,0E0,0E0,0E0],"parents":[2147483647,0,0,1,1,3,3,5,5,7,7],"right_children":[2,4,-1,6,-1,8,-1,10,-1,-1,-1],"split_conditions":[1E0,1E0,-5.1961657E-2,1E0,7.257155E-2,1E0,5.6838967E-2,1E0,6.0283687E-2,1.0130982E-3,-3.3259865E-2],"split_indices":[133,3,0,72,0,116,0,55,0,0,0],"split_type":[0,0,0,0,0,0,0,0,0,0,0],"sum_hessian":[5.6007618E1,5.4206665E1,1.8009527E0,5.2973022E1,1.2336426E0,5.1078148E1,1.8948741E0,4.9663746E1,1.4144038E0,3.901338E1,1.0650366E1],"tree_param":{"num_deleted":"0","num_feature":"178","num_nodes":"11","size_leaf_vector":"1"}},{"base_weights":[-1.3059858E-3,-3.5730645E-2,3.8254768E-1,3.4587815E-2,-3.3857477E-1,6.2209684E-2,-1.8147197E-2,9.196576E-2,-7.434203E-2,-4.3347442E-1,2.2169871E-2,1.6729906E-1,-3.5718518E-1,-2.569714E-1,-8.960893E-2,2.3675617E-2,-5.01041E-2,1.1375534E-2,-8.917894E-2,-6.290719E-3,-7.392937E-2],"categories":[],"categories_nodes":[],"categories_segments":[],"categories_sizes":[],"default_left":[0,0,0,0,0,0,0,0,0,0,0,0,0,0,0,0,0,0,0,0,0],"id":32,"left_children":[1,3,5,7,9,-1,-1,11,-1,13,-1,15,17,19,-1,-1,-1,-1,-1,-1,-1],"loss_changes":[7.655903E-1,1.1432413E0,7.571821E-1,2.03386E0,6.3339925E-1,0E0,0E0,1.4773206E0,0E0,5.0297403E-1,0E0,1.8157102E0,1.6967669E0,6.931409E-1,0E0,0E0,0E0,0E0,0E0,0E0,0E0],"parents":[2147483647,0,0,1,1,2,2,3,3,4,4,7,7,9,9,11,11,12,12,13,13],"right_children":[2,4,6,8,10,-1,-1,12,-1,14,-1,16,18,20,-1,-1,-1,-1,-1,-1,-1],"split_conditions":[1E0,1E0,1E0,1E0,1E0,6.2209684E-2,-1.8147197E-2,1E0,-7.434203E-2,1E0,2.2169871E-2,1E0,1E0,1E0,-8.960893E-2,2.3675617E-2,-5.01041E-2,1.1375534E-2,-8.917894E-2,-6.290719E-3,-7.392937E-2],"split_indices":[2,88,177,90,139,0,0,141,0,67,0,84,54,123,0,0,0,0,0,0,0],"split_type":[0,0,0,0,0,0,0,0,0,0,0,0,0,0,0,0,0,0,0,0,0],"sum_hessian":[5.590327E1,5.213466E1,3.7686105E0,4.3029316E1,9.105342E0,2.5728886E0,1.1957217E0,4.0895103E1,2.1342127E0,7.9799986E0,1.1253432E0,3.55586E1,5.336502E0,6.902095E0,1.0779035E0,3.2796036E1,2.7625663E0,3.2557132E0,2.0807889E0,5.7278843E0,1.1742104E0],"tree_param":{"num_deleted":"0","num_feature":"178","num_nodes":"21","size_leaf_vector":"1"}},{"base_weights":[-6.1929463E-3,1.8706584E-2,-4.9053665E-2,-9.134186E-3,6.9647014E-2,2.7397407E-2,-5.13992E-1,-1.7223284E-2,5.4740537E-2,-6.835735E-2,-3.7886356E-3,-8.591E-3,4.0172752E-2],"categories":[],"categories_nodes":[],"categories_segments":[],"categories_sizes":[],"default_left":[0,0,0,0,0,0,0,0,0,0,0,0,0],"id":33,"left_children":[1,3,-1,5,-1,7,9,11,-1,-1,-1,-1,-1],"loss_changes":[6.9267225E-1,1.041674E0,0E0,1.0042872E0,0E0,1.1931548E0,2.706892E-1,1.4144458E0,0E0,0E0,0E0,0E0,0E0],"parents":[2147483647,0,0,1,1,3,3,5,5,6,6,7,7],"right_children":[2,4,-1,6,-1,8,10,12,-1,-1,-1,-1,-1],"split_conditions":[1E0,1E0,-4.9053665E-2,1E0,6.9647014E-2,1E0,1E0,1E0,5.4740537E-2,-6.835735E-2,-3.7886356E-3,-8.591E-3,4.0172752E-2],"split_indices":[133,3,0,4,0,42,7,159,0,0,0,0,0],"split_type":[0,0,0,0,0,0,0,0,0,0,0,0,0],"sum_hessian":[5.567495E1,5.3867085E1,1.8078651E0,5.268927E1,1.1778157E0,5.0015846E1,2.6734223E0,4.6953735E1,3.0621133E0,1.649969E0,1.0234534E0,4.1022984E1,5.930752E0],"tree_param":{"num_deleted":"0","num_feature":"178","num_nodes":"13","size_leaf_vector":"1"}},{"base_weights":[-4.933883E-3,-2.629863E-2,5.480666E-2,-5.490421E-2,7.226647E-2,-1.6197804E-2,-5.822704E-1,2.1494951E-2,-6.298815E-2,-7.5174303E-4,-9.0891905E-2,-2.4517828E-3,6.462849E-2],"categories":[],"categories_nodes":[],"categories_segments":[],"categories_sizes":[],"default_left":[0,0,0,0,0,0,0,0,0,0,0,0,0],"id":34,"left_children":[1,3,-1,5,-1,7,9,11,-1,-1,-1,-1,-1],"loss_changes":[6.821515E-1,1.2259408E0,0E0,1.0981855E0,0E0,1.2066628E0,6.843692E-1,1.4406822E0,0E0,0E0,0E0,0E0,0E0],"parents":[2147483647,0,0,1,1,3,3,5,5,6,6,7,7],"right_children":[2,4,-1,6,-1,8,10,12,-1,-1,-1,-1,-1],"split_conditions":[1E0,1E0,5.480666E-2,1E0,7.226647E-2,1E0,1E0,1E0,-6.298815E-2,-7.5174303E-4,-9.0891905E-2,-2.4517828E-3,6.462849E-2],"split_indices":[167,71,0,160,0,10,54,5,0,0,0,0,0],"split_type":[0,0,0,0,0,0,0,0,0,0,0,0,0],"sum_hessian":[5.5517487E1,5.4369408E1,1.1480764E0,5.326184E1,1.1075668E0,5.058019E1,2.6816537E0,4.8562435E1,2.017755E0,1.3424922E0,1.3391614E0,4.6126217E1,2.4362164E0],"tree_param":{"num_deleted":"0","num_feature":"178","num_nodes":"13","size_leaf_vector":"1"}},{"base_weights":[-3.8121217E-3,-3.596267E-2,3.5567263E-1,2.962457E-2,-3.1680304E-1,3.4581276E-4,7.962259E-2,8.286519E-2,-6.99755E-2,-4.3596718E-1,1.2590678E-2,1.2530136E-1,-5.9756316E-2,-1.7954373E-1,-9.0710886E-2,1.6551102E-2,-5.7556253E-2,-5.3816562E-5,-5.4395825E-2],"categories":[],"categories_nodes":[],"categories_segments":[],"categories_sizes":[],"default_left":[0,0,0,0,0,0,0,0,0,0,0,0,0,0,0,0,0,0,0],"id":35,"left_children":[1,3,5,7,9,-1,-1,11,-1,13,-1,15,-1,17,-1,-1,-1,-1,-1],"loss_changes":[6.648006E-1,9.79925E-1,7.301121E-1,1.7522368E0,5.856694E-1,0E0,0E0,1.2747853E0,0E0,8.219247E-1,0E0,1.2209086E0,0E0,4.2536837E-1,0E0,0E0,0E0,0E0,0E0],"parents":[2147483647,0,0,1,1,2,2,3,3,4,4,7,7,9,9,11,11,13,13],"right_children":[2,4,6,8,10,-1,-1,12,-1,14,-1,16,-1,18,-1,-1,-1,-1,-1],"split_conditions":[1E0,1E0,1E0,1E0,1E0,3.4581276E-4,7.962259E-2,1E0,-6.99755E-2,1E0,1.2590678E-2,1E0,-5.9756316E-2,1E0,-9.0710886E-2,1.6551102E-2,-5.7556253E-2,-5.3816562E-5,-5.4395825E-2],"split_indices":[2,88,59,90,61,0,0,133,0,96,0,49,0,33,0,0,0,0,0],"split_type":[0,0,0,0,0,0,0,0,0,0,0,0,0,0,0,0,0,0,0],"sum_hessian":[5.541377E1,5.169076E1,3.723007E0,4.2629593E1,9.061168E0,2.62901E0,1.0939971E0,4.055565E1,2.0739455E0,7.151445E0,1.9097232E0,3.894276E1,1.6128879E0,5.5253186E0,1.6261262E0,3.755218E1,1.3905802E0,4.376833E0,1.1484858E0],"tree_param":{"num_deleted":"0","num_feature":"178","num_nodes":"19","size_leaf_vector":"1"}},{"base_weights":[-7.4188747E-3,-3.9431542E-2,3.297804E-1,-5.260659E-3,-5.9864998E-2,5.7753605E-1,-1.3245783E-2,-6.6388085E-2,3.0135685E-1,7.149506E-2,2.0750538E-2,-1.2375393E-1,7.674571E-2,2.619289E-2,8.236295E-2,-1.6161991E-2,5.544829E-2,-3.3747774E-2,6.469465E-2],"categories":[],"categories_nodes":[],"categories_segments":[],"categories_sizes":[],"default_left":[0,0,0,0,0,0,0,0,0,0,0,0,0,0,0,0,0,0,0],"id":36,"left_children":[1,3,5,7,-1,9,-1,11,13,-1,-1,15,-1,17,-1,-1,-1,-1,-1],"loss_changes":[6.2048703E-1,9.96061E-1,6.475365E-1,9.6253705E-1,0E0,2.6195765E-2,0E0,2.1398072E0,1.2056406E0,0E0,0E0,1.1389296E0,0E0,1.714078E0,0E0,0E0,0E0,0E0,0E0],"parents":[2147483647,0,0,1,1,2,2,3,3,5,5,7,7,8,8,11,11,13,13],"right_children":[2,4,6,8,-1,10,-1,12,14,-1,-1,16,-1,18,-1,-1,-1,-1,-1],"split_conditions":[1E0,1E0,1E0,1E0,-5.9864998E-2,1E0,-1.3245783E-2,1E0,1E0,7.149506E-2,2.0750538E-2,1E0,7.674571E-2,1E0,8.236295E-2,-1.6161991E-2,5.544829E-2,-3.3747774E-2,6.469465E-2],"split_indices":[81,10,168,7,0,88,0,29,176,0,0,116,0,169,0,0,0,0,0],"split_type":[0,0,0,0,0,0,0,0,0,0,0,0,0,0,0,0,0,0,0],"sum_hessian":[5.5276333E1,5.1290073E1,3.9862611E0,4.9287766E1,2.002308E0,2.4328442E0,1.553417E0,4.1748287E1,7.5394783E0,1.0943191E0,1.3385252E0,3.9857788E1,1.8904997E0,5.625687E0,1.9137912E0,3.847162E1,1.3861669E0,3.8351772E0,1.7905098E0],"tree_param":{"num_deleted":"0","num_feature":"178","num_nodes":"19","size_leaf_vector":"1"}},{"base_weights":[-2.1837878E-3,2.1285012E-2,-4.6891224E-2,5.792218E-2,-5.2804434E-1,1.2596692E-1,-2.654797E-1,-6.6744864E-2,-1.1753876E-2,1.7754914E-1,-5.288991E-2,3.2276563E-2,-7.136718E-1,7.62723E-3,5.013409E-2,4.6150766E-2,-3.3896554E-2,-1.8682553E-2,-9.957296E-2],"categories":[],"categories_nodes":[],"categories_segments":[],"categories_sizes":[],"default_left":[0,0,0,0,0,0,0,0,0,0,0,0,0,0,0,0,0,0,0],"id":37,"left_children":[1,3,-1,5,7,9,11,-1,-1,13,-1,15,17,-1,-1,-1,-1,-1,-1],"loss_changes":[6.2517995E-1,1.1260765E0,0E0,1.1761982E0,1.2196517E-1,1.566051E0,1.2706375E0,0E0,0E0,1.3110999E0,0E0,1.2039548E0,3.7493265E-1,0E0,0E0,0E0,0E0,0E0,0E0],"parents":[2147483647,0,0,1,1,3,3,4,4,5,5,6,6,9,9,11,11,12,12],"right_children":[2,4,-1,6,8,10,12,-1,-1,14,-1,16,18,-1,-1,-1,-1,-1,-1],"split_conditions":[1E0,1E0,-4.6891224E-2,1E0,1E0,1E0,1E0,-6.6744864E-2,-1.1753876E-2,1E0,-5.288991E-2,1E0,1E0,7.62723E-3,5.013409E-2,4.6150766E-2,-3.3896554E-2,-1.8682553E-2,-9.957296E-2],"split_indices":[16,146,0,89,33,22,168,0,0,168,0,169,99,0,0,0,0,0,0],"split_type":[0,0,0,0,0,0,0,0,0,0,0,0,0,0,0,0,0,0,0],"sum_hessian":[5.516433E1,5.3431973E1,1.7323583E0,5.09298E1,2.502172E0,4.25811E1,8.348699E0,1.4006158E0,1.1015563E0,4.0147644E1,2.4334567E0,5.573759E0,2.7749395E0,3.1523241E1,8.624404E0,2.4722233E0,3.1015358E0,1.5472497E0,1.22769E0],"tree_param":{"num_deleted":"0","num_feature":"178","num_nodes":"19","size_leaf_vector":"1"}},{"base_weights":[-6.009886E-3,-3.771844E-2,3.5053065E-1,2.3865346E-2,-3.0103374E-1,1.7969193E-2,7.754185E-2,7.362998E-2,-6.651347E-2,-4.151033E-1,1.19996825E-2,1.9683143E-2,-1.9821139E-2,1.4304858E-1,-3.3874482E-1,-1.7799428E-1,-8.45785E-2,2.0710446E-2,-4.6699364E-2,9.604277E-3,-8.338829E-2,-5.5096013E-4,-5.273464E-2],"categories":[],"categories_nodes":[],"categories_segments":[],"categories_sizes":[],"default_left":[0,0,0,0,0,0,0,0,0,0,0,0,0,0,0,0,0,0,0,0,0,0,0],"id":38,"left_children":[1,3,5,7,9,11,-1,13,-1,15,-1,-1,-1,17,19,21,-1,-1,-1,-1,-1,-1,-1],"loss_changes":[6.458171E-1,8.550871E-1,6.4552706E-1,1.5337619E0,5.293368E-1,1.7982562E-1,0E0,1.2303575E0,0E0,6.7460835E-1,0E0,0E0,0E0,1.5050932E0,1.4246598E0,3.8743567E-1,0E0,0E0,0E0,0E0,0E0,0E0,0E0],"parents":[2147483647,0,0,1,1,2,2,3,3,4,4,5,5,7,7,9,9,13,13,14,14,15,15],"right_children":[2,4,6,8,10,12,-1,14,-1,16,-1,-1,-1,18,20,22,-1,-1,-1,-1,-1,-1,-1],"split_conditions":[1E0,1E0,1E0,1E0,1E0,1E0,7.754185E-2,1E0,-6.651347E-2,1E0,1.19996825E-2,1.9683143E-2,-1.9821139E-2,1E0,1E0,1E0,-8.45785E-2,2.0710446E-2,-4.6699364E-2,9.604277E-3,-8.338829E-2,-5.5096013E-4,-5.273464E-2],"split_indices":[2,88,88,90,61,168,0,141,0,96,0,0,0,84,54,33,0,0,0,0,0,0,0],"split_type":[0,0,0,0,0,0,0,0,0,0,0,0,0,0,0,0,0,0,0,0,0,0,0],"sum_hessian":[5.4955246E1,5.1288193E1,3.6670516E0,4.2303646E1,8.984549E0,2.6416855E0,1.0253661E0,4.028696E1,2.016685E0,7.080351E0,1.9041975E0,1.4945982E0,1.1470873E0,3.504127E1,5.2456894E0,5.477844E0,1.6025065E0,3.2309235E1,2.7320373E0,3.2222314E0,2.0234578E0,4.3472557E0,1.1305883E0],"tree_param":{"num_deleted":"0","num_feature":"178","num_nodes":"23","size_leaf_vector":"1"}},{"base_weights":[-9.325813E-3,3.4213074E-2,-2.692899E-1,6.973462E-2,-3.9370682E-2,-4.559944E-1,4.5688517E-2,1.4308257E-1,-3.9057264E-1,-5.916666E-1,1.1840248E-2,2.1265799E-1,-1.891303E-1,1.386442E-1,-9.036296E-2,-7.6892745E-1,9.975241E-3,3.14819E-2,-3.2179303E-2,2.0292392E-2,-6.102019E-2,5.4623783E-2,-4.82577E-2,-3.55345E-2,-1.02085546E-1],"categories":[],"categories_nodes":[],"categories_segments":[],"categories_sizes":[],"default_left":[0,0,0,0,0,0,0,0,0,0,0,0,0,0,0,0,0,0,0,0,0,0,0,0,0],"id":39,"left_children":[1,3,5,7,-1,9,-1,11,13,15,-1,17,19,21,-1,23,-1,-1,-1,-1,-1,-1,-1,-1,-1],"loss_changes":[6.399247E-1,7.664541E-1,1.307424E0,1.6001962E0,0E0,6.115931E-1,0E0,9.6906054E-1,1.905051E0,7.8609586E-1,0E0,1.9411901E0,1.3599598E0,1.3001251E0,0E0,1.2922192E-1,0E0,0E0,0E0,0E0,0E0,0E0,0E0,0E0,0E0],"parents":[2147483647,0,0,1,1,2,2,3,3,5,5,7,7,8,8,9,9,11,11,12,12,13,13,15,15],"right_children":[2,4,6,8,-1,10,-1,12,14,16,-1,18,20,22,-1,24,-1,-1,-1,-1,-1,-1,-1,-1,-1],"split_conditions":[1E0,1E0,1E0,1E0,-3.9370682E-2,1E0,4.5688517E-2,1E0,1E0,1E0,1.1840248E-2,1E0,1E0,1E0,-9.036296E-2,1E0,9.975241E-3,3.14819E-2,-3.2179303E-2,2.0292392E-2,-6.102019E-2,5.4623783E-2,-4.82577E-2,-3.55345E-2,-1.02085546E-1],"split_indices":[158,144,93,141,0,58,0,68,99,139,0,89,55,169,0,169,0,0,0,0,0,0,0,0,0],"split_type":[0,0,0,0,0,0,0,0,0,0,0,0,0,0,0,0,0,0,0,0,0,0,0,0,0],"sum_hessian":[5.4723713E1,4.7617165E1,7.106548E0,4.474032E1,2.8768468E0,5.949064E0,1.157484E0,3.9185448E1,5.554872E0,4.7880607E0,1.1610031E0,3.269748E1,6.487966E0,3.0936E0,2.461272E0,3.721794E0,1.0662665E0,2.7795319E1,4.9021606E0,3.6280313E0,2.8599348E0,1.9408677E0,1.1527325E0,2.321371E0,1.4004228E0],"tree_param":{"num_deleted":"0","num_feature":"178","num_nodes":"25","size_leaf_vector":"1"}},{"base_weights":[-1.2717431E-2,-3.4558892E-2,4.7138236E-2,-5.6041097E-3,-6.3955046E-2,2.93402E-2,-5.0887245E-1,-3.391021E-2,3.3551112E-1,-6.3167386E-2,-1.2790292E-2,-1.38836E-2,3.0542085E-2,6.2223047E-2,-4.784448E-2],"categories":[],"categories_nodes":[],"categories_segments":[],"categories_sizes":[],"default_left":[0,0,0,0,0,0,0,0,0,0,0,0,0,0,0],"id":40,"left_children":[1,3,-1,5,-1,7,9,11,13,-1,-1,-1,-1,-1,-1],"loss_changes":[6.026466E-1,9.422366E-1,0E0,9.388473E-1,0E0,9.810141E-1,8.1335485E-2,1.5522469E0,2.3198211E0,0E0,0E0,0E0,0E0,0E0,0E0],"parents":[2147483647,0,0,1,1,3,3,5,5,6,6,7,7,8,8],"right_children":[2,4,-1,6,-1,8,10,12,14,-1,-1,-1,-1,-1,-1],"split_conditions":[1E0,1E0,4.7138236E-2,1E0,-6.3955046E-2,1E0,1E0,1E0,1E0,-6.3167386E-2,-1.2790292E-2,-1.38836E-2,3.0542085E-2,6.2223047E-2,-4.784448E-2],"split_indices":[86,16,0,146,0,32,33,66,75,0,0,0,0,0,0],"split_type":[0,0,0,0,0,0,0,0,0,0,0,0,0,0,0],"sum_hessian":[5.445554E1,5.299322E1,1.4623191E0,5.153598E1,1.4572392E0,4.9070484E1,2.465496E0,4.1405884E1,7.6646023E0,1.3668407E0,1.0986553E0,3.2077835E1,9.328049E0,5.842208E0,1.8223944E0],"tree_param":{"num_deleted":"0","num_feature":"178","num_nodes":"15","size_leaf_vector":"1"}},{"base_weights":[-1.2558619E-2,-4.372107E-2,3.4037602E-1,-9.632775E-3,-4.937673E-2,1.2453252E-3,7.480966E-2,-5.632687E-2,4.633626E-2,-8.892803E-2,6.823201E-2,-1.5043616E-2,3.097245E-2],"categories":[],"categories_nodes":[],"categories_segments":[],"categories_sizes":[],"default_left":[0,0,0,0,0,0,0,0,0,0,0,0,0],"id":41,"left_children":[1,3,5,7,-1,-1,-1,9,-1,11,-1,-1,-1],"loss_changes":[6.2299216E-1,7.8826004E-1,6.0566825E-1,1.1099046E0,0E0,0E0,0E0,1.15766E0,0E0,1.1380794E0,0E0,0E0,0E0],"parents":[2147483647,0,0,1,1,2,2,3,3,7,7,9,9],"right_children":[2,4,6,8,-1,-1,-1,10,-1,12,-1,-1,-1],"split_conditions":[1E0,1E0,1E0,1E0,-4.937673E-2,1.2453252E-3,7.480966E-2,1E0,4.633626E-2,1E0,6.823201E-2,-1.5043616E-2,3.097245E-2],"split_indices":[2,4,59,42,0,0,0,71,0,159,0,0,0],"split_type":[0,0,0,0,0,0,0,0,0,0,0,0,0],"sum_hessian":[5.4291283E1,5.0691578E1,3.5997038E0,4.807183E1,2.619748E0,2.5662534E0,1.0334504E0,4.455434E1,3.5174892E0,4.3513428E1,1.0409158E0,3.8236546E1,5.2768817E0],"tree_param":{"num_deleted":"0","num_feature":"178","num_nodes":"13","size_leaf_vector":"1"}},{"base_weights":[-8.435333E-3,-2.8393786E-2,5.060151E-2,-5.3884402E-2,6.5977074E-2,-1.8193187E-2,-5.3986734E-1,1.5575767E-2,-5.6190092E-2,1.2733547E-3,-8.6112335E-2,-2.4921445E-3,5.698019E-2],"categories":[],"categories_nodes":[],"categories_segments":[],"categories_sizes":[],"default_left":[0,0,0,0,0,0,0,0,0,0,0,0,0],"id":42,"left_children":[1,3,-1,5,-1,7,9,11,-1,-1,-1,-1,-1],"loss_changes":[5.804048E-1,9.830911E-1,0E0,9.096782E-1,0E0,9.34475E-1,6.486381E-1,1.1015091E0,0E0,0E0,0E0,0E0,0E0],"parents":[2147483647,0,0,1,1,3,3,5,5,6,6,7,7],"right_children":[2,4,-1,6,-1,8,10,12,-1,-1,-1,-1,-1],"split_conditions":[1E0,1E0,5.060151E-2,1E0,6.5977074E-2,1E0,1E0,1E0,-5.6190092E-2,1.2733547E-3,-8.6112335E-2,-2.4921445E-3,5.698019E-2],"split_indices":[167,71,0,160,0,10,54,5,0,0,0,0,0],"split_type":[0,0,0,0,0,0,0,0,0,0,0,0,0],"sum_hessian":[5.4128292E1,5.3016296E1,1.1119956E0,5.2011414E1,1.0048803E0,4.9419426E1,2.5919905E0,4.7444088E1,1.9753357E0,1.3059518E0,1.2860388E0,4.5103424E1,2.340666E0],"tree_param":{"num_deleted":"0","num_feature":"178","num_nodes":"13","size_leaf_vector":"1"}},{"base_weights":[-7.046507E-3,1.55940065E-2,-4.398011E-2,-9.822423E-3,6.487096E-2,2.4260059E-2,-4.842351E-2,-8.2342755E-3,6.277482E-2,-4.743427E-3,4.499923E-2],"categories":[],"categories_nodes":[],"categories_segments":[],"categories_sizes":[],"default_left":[0,0,0,0,0,0,0,0,0,0,0],"id":43,"left_children":[1,3,-1,5,-1,7,-1,9,-1,-1,-1],"loss_changes":[5.458999E-1,8.6320144E-1,0E0,8.554091E-1,0E0,9.7845465E-1,0E0,8.850427E-1,0E0,0E0,0E0],"parents":[2147483647,0,0,1,1,3,3,5,5,7,7],"right_children":[2,4,-1,6,-1,8,-1,10,-1,-1,-1],"split_conditions":[1E0,1E0,-4.398011E-2,1E0,6.487096E-2,1E0,-4.842351E-2,1E0,6.277482E-2,-4.743427E-3,4.499923E-2],"split_indices":[133,3,0,4,0,72,0,42,0,0,0],"split_type":[0,0,0,0,0,0,0,0,0,0,0],"sum_hessian":[5.4016678E1,5.2247215E1,1.7694628E0,5.1177193E1,1.0700231E0,4.8632244E1,2.5449467E0,4.708343E1,1.548814E0,4.419883E1,2.8846025E0],"tree_param":{"num_deleted":"0","num_feature":"178","num_nodes":"11","size_leaf_vector":"1"}},{"base_weights":[-4.9373913E-3,-3.4539092E-2,3.2815862E-1,2.1526208E-2,-2.7294663E-1,1.6759866E-3,7.2035305E-2,6.92036E-2,-6.360194E-2,-3.555783E-1,2.062712E-2,1.08054504E-1,-5.4412093E-2,-1.9578245E-1,-7.965118E-2,1.6079601E-3,4.39636E-2,-1.2294804E-3,-6.611281E-2],"categories":[],"categories_nodes":[],"categories_segments":[],"categories_sizes":[],"default_left":[0,0,0,0,0,0,0,0,0,0,0,0,0,0,0,0,0,0,0],"id":44,"left_children":[1,3,5,7,9,-1,-1,11,-1,13,-1,15,-1,17,-1,-1,-1,-1,-1],"loss_changes":[5.523216E-1,6.914724E-1,5.464361E-1,1.3749437E0,4.629482E-1,0E0,0E0,1.0234921E0,0E0,4.6120572E-1,0E0,1.1795168E0,0E0,6.540281E-1,0E0,0E0,0E0,0E0,0E0],"parents":[2147483647,0,0,1,1,2,2,3,3,4,4,7,7,9,9,11,11,13,13],"right_children":[2,4,6,8,10,-1,-1,12,-1,14,-1,16,-1,18,-1,-1,-1,-1,-1],"split_conditions":[1E0,1E0,1E0,1E0,1E0,1.6759866E-3,7.2035305E-2,1E0,-6.360194E-2,1E0,2.062712E-2,1E0,-5.4412093E-2,1E0,-7.965118E-2,1.6079601E-3,4.39636E-2,-1.2294804E-3,-6.611281E-2],"split_indices":[2,88,59,90,139,0,0,133,0,67,0,177,0,123,0,0,0,0,0],"split_type":[0,0,0,0,0,0,0,0,0,0,0,0,0,0,0,0,0,0,0],"sum_hessian":[5.3865707E1,5.0292595E1,3.573112E0,4.145379E1,8.838805E0,2.5729485E0,1.0001637E0,3.9485523E1,1.9682662E0,7.7589326E0,1.0798726E0,3.7908066E1,1.5774559E0,6.754937E0,1.0039954E0,3.0497177E1,7.4108896E0,5.5808187E0,1.1741185E0],"tree_param":{"num_deleted":"0","num_feature":"178","num_nodes":"19","size_leaf_vector":"1"}},{"base_weights":[-6.757754E-3,-3.6948167E-2,3.1189248E-1,3.0192098E-2,-2.7804342E-1,5.6277163E-2,-1.4737576E-2,7.975382E-2,-4.0520415E-1,-4.0648255E-1,2.4613133E-2,1.4239423E-1,-3.274584E-1,-6.343601E-2,1.4707508E-2,-6.2922794E-1,3.3026464E-2,2.0584723E-2,-5.027641E-2,-6.643044E-2,4.766771E-2,-7.973499E-2,1.5392423E-2],"categories":[],"categories_nodes":[],"categories_segments":[],"categories_sizes":[],"default_left":[0,0,0,0,0,0,0,0,0,0,0,0,0,0,0,0,0,0,0,0,0,0,0],"id":45,"left_children":[1,3,5,7,9,-1,-1,11,13,15,-1,17,19,-1,-1,21,-1,-1,-1,-1,-1,-1,-1],"loss_changes":[5.379151E-1,8.31934E-1,6.407728E-1,9.1049814E-1,8.527242E-1,0E0,0E0,9.999268E-1,6.4047456E-1,1.7433114E0,0E0,1.4579858E0,1.7483553E0,0E0,0E0,1.1140053E0,0E0,0E0,0E0,0E0,0E0,0E0,0E0],"parents":[2147483647,0,0,1,1,2,2,3,3,4,4,7,7,8,8,9,9,11,11,12,12,15,15],"right_children":[2,4,6,8,10,-1,-1,12,14,16,-1,18,20,-1,-1,22,-1,-1,-1,-1,-1,-1,-1],"split_conditions":[1E0,1E0,1E0,1E0,1E0,5.6277163E-2,-1.4737576E-2,1E0,1E0,1E0,2.4613133E-2,1E0,1E0,-6.343601E-2,1.4707508E-2,1E0,3.3026464E-2,2.0584723E-2,-5.027641E-2,-6.643044E-2,4.766771E-2,-7.973499E-2,1.5392423E-2],"split_indices":[81,55,168,43,14,0,0,14,51,176,0,160,66,0,0,43,0,0,0,0,0,0,0],"split_type":[0,0,0,0,0,0,0,0,0,0,0,0,0,0,0,0,0,0,0,0,0,0,0],"sum_hessian":[5.3717392E1,4.9875957E1,3.8414338E0,3.969614E1,1.0179819E1,2.338592E0,1.5028416E0,3.637262E1,3.3235185E0,8.356697E0,1.8231223E0,3.208707E1,4.285552E0,2.2438579E0,1.0796607E0,6.5287557E0,1.8279418E0,2.9833775E1,2.2532942E0,3.1429043E0,1.1426476E0,5.359981E0,1.1687744E0],"tree_param":{"num_deleted":"0","num_feature":"178","num_nodes":"23","size_leaf_vector":"1"}},{"base_weights":[-7.263894E-3,-2.6544584E-2,4.913276E-2,4.0627965E-3,-4.4739705E-1,-3.7471175E-2,3.712377E-1,7.6279007E-3,-8.105104E-2,2.6721815E-2,-3.1254613E-1,5.5093206E-2,-3.1789124E-3,1.2964732E-2,-3.9549038E-2,-5.0614674E-2,5.772051E-2],"categories":[],"categories_nodes":[],"categories_segments":[],"categories_sizes":[],"default_left":[0,0,0,0,0,0,0,0,0,0,0,0,0,0,0,0,0],"id":46,"left_children":[1,3,-1,5,7,9,11,-1,-1,13,15,-1,-1,-1,-1,-1,-1],"loss_changes":[5.372643E-1,6.9031817E-1,0E0,7.888869E-1,7.526011E-1,8.305289E-1,3.9815164E-1,0E0,0E0,1.731855E0,1.823281E0,0E0,0E0,0E0,0E0,0E0,0E0],"parents":[2147483647,0,0,1,1,3,3,4,4,5,5,6,6,9,9,10,10],"right_children":[2,4,-1,6,8,10,12,-1,-1,14,16,-1,-1,-1,-1,-1,-1],"split_conditions":[1E0,1E0,4.913276E-2,1E0,1E0,1E0,1E0,7.6279007E-3,-8.105104E-2,1E0,1E0,5.5093206E-2,-3.1789124E-3,1.2964732E-2,-3.9549038E-2,-5.0614674E-2,5.772051E-2],"split_indices":[167,160,0,15,54,89,101,0,0,68,68,0,0,0,0,0,0],"split_type":[0,0,0,0,0,0,0,0,0,0,0,0,0,0,0,0,0],"sum_hessian":[5.353156E1,5.245006E1,1.0814995E0,4.9817337E1,2.6327243E0,4.5561478E1,4.255861E0,1.4014732E0,1.2312511E0,3.7672802E1,7.8886743E0,2.6896584E0,1.5662025E0,3.0846159E1,6.826642E0,6.833018E0,1.0556567E0],"tree_param":{"num_deleted":"0","num_feature":"178","num_nodes":"17","size_leaf_vector":"1"}},{"base_weights":[-6.4235046E-3,3.473759E-2,-2.4855186E-1,7.318949E-2,-3.5217658E-1,-4.2377385E-1,4.3067817E-2,1.2787004E-1,-4.5242795E-1,-7.491451E-2,4.2654075E-2,-1.8209213E-1,-8.88215E-2,1.6527306E-1,-4.847452E-2,-8.5919246E-2,1.2789962E-2,1.0827973E-1,-4.677252E-2,2.0600637E-2,-4.7015548E-2,5.1176216E-2,-4.325294E-2],"categories":[],"categories_nodes":[],"categories_segments":[],"categories_sizes":[],"default_left":[0,0,0,0,0,0,0,0,0,0,0,0,0,0,0,0,0,0,0,0,0,0,0],"id":47,"left_children":[1,3,5,7,9,11,-1,13,15,-1,-1,17,-1,19,-1,-1,-1,21,-1,-1,-1,-1,-1],"loss_changes":[5.5065197E-1,7.3038685E-1,1.1375699E0,1.3197931E0,1.6961813E0,6.1086595E-1,0E0,1.0092552E0,1.138546E0,0E0,0E0,5.304605E-1,0E0,1.1053149E0,0E0,0E0,0E0,1.024522E0,0E0,0E0,0E0,0E0,0E0],"parents":[2147483647,0,0,1,1,2,2,3,3,4,4,5,5,7,7,8,8,11,11,13,13,17,17],"right_children":[2,4,6,8,10,12,-1,14,16,-1,-1,18,-1,20,-1,-1,-1,22,-1,-1,-1,-1,-1],"split_conditions":[1E0,1E0,1E0,1E0,1E0,1E0,4.3067817E-2,1E0,1E0,-7.491451E-2,4.2654075E-2,1E0,-8.88215E-2,1E0,-4.847452E-2,-8.5919246E-2,1.2789962E-2,1E0,-4.677252E-2,2.0600637E-2,-4.7015548E-2,5.1176216E-2,-4.325294E-2],"split_indices":[158,34,93,80,176,59,0,91,169,0,0,176,0,92,0,0,0,96,0,0,0,0,0],"split_type":[0,0,0,0,0,0,0,0,0,0,0,0,0,0,0,0,0,0,0,0,0,0,0],"sum_hessian":[5.3385235E1,4.6360603E1,7.0246315E0,4.2907276E1,3.4533274E0,5.8830647E0,1.1415665E0,3.954961E1,3.3576648E0,2.31247E0,1.1408575E0,4.7851033E0,1.0979618E0,3.7962067E1,1.5875435E0,1.6915145E0,1.6661502E0,2.6807704E0,2.1043327E0,3.6310246E1,1.6518224E0,1.5660759E0,1.1146946E0],"tree_param":{"num_deleted":"0","num_feature":"178","num_nodes":"23","size_leaf_vector":"1"}},{"base_weights":[-1.0755656E-2,1.5675258E-2,-3.766779E-1,4.485593E-2,-6.0566135E-2,-4.619751E-2,-9.707606E-3,1.0147627E-1,-2.2188042E-1,1.4777413E-1,-4.7773976E-2,7.534152E-2,-6.756348E-1,5.7079806E-3,4.4184405E-2,4.4446703E-2,-2.6093978E-2,-1.7433261E-2,-9.375874E-2],"categories":[],"categories_nodes":[],"categories_segments":[],"categories_sizes":[],"default_left":[0,0,0,0,0,0,0,0,0,0,0,0,0,0,0,0,0,0,0],"id":48,"left_children":[1,3,5,7,-1,-1,-1,9,11,13,-1,15,17,-1,-1,-1,-1,-1,-1],"loss_changes":[5.297825E-1,9.6050566E-1,4.312998E-2,7.791506E-1,0E0,0E0,0E0,1.1972378E0,1.2763344E0,1.0327213E0,0E0,9.0914434E-1,3.219639E-1,0E0,0E0,0E0,0E0,0E0,0E0],"parents":[2147483647,0,0,1,1,2,2,3,3,7,7,8,8,9,9,11,11,12,12],"right_children":[2,4,6,8,-1,-1,-1,10,12,14,-1,16,18,-1,-1,-1,-1,-1,-1],"split_conditions":[1E0,1E0,1E0,1E0,-6.0566135E-2,-4.619751E-2,-9.707606E-3,1E0,1E0,1E0,-4.7773976E-2,1E0,1E0,5.7079806E-3,4.4184405E-2,4.4446703E-2,-2.6093978E-2,-1.7433261E-2,-9.375874E-2],"split_indices":[146,16,139,89,0,0,0,22,168,168,0,169,99,0,0,0,0,0,0],"split_type":[0,0,0,0,0,0,0,0,0,0,0,0,0,0,0,0,0,0,0],"sum_hessian":[5.3166294E1,5.047742E1,2.68887E0,4.909931E1,1.3781102E0,1.5605407E0,1.1283294E0,4.1013012E1,8.086302E0,3.8667145E1,2.3458676E0,5.389794E0,2.6965077E0,3.0465391E1,8.201751E0,2.4160545E0,2.9737396E0,1.4970654E0,1.1994423E0],"tree_param":{"num_deleted":"0","num_feature":"178","num_nodes":"19","size_leaf_vector":"1"}},{"base_weights":[-1.3556753E-2,-3.4225505E-2,4.4640835E-2,-9.170229E-3,-5.6251187E-2,2.5641298E-2,-5.002696E-1,-2.9188782E-2,2.9445684E-1,-5.9701767E-2,-1.5570899E-2,-1.2332611E-2,2.7778536E-2,5.6002267E-2,-4.369724E-2],"categories":[],"categories_nodes":[],"categories_segments":[],"categories_sizes":[],"default_left":[0,0,0,0,0,0,0,0,0,0,0,0,0,0,0],"id":49,"left_children":[1,3,-1,5,-1,7,9,11,13,-1,-1,-1,-1,-1,-1],"loss_changes":[5.2831566E-1,6.907145E-1,0E0,8.882908E-1,0E0,7.274317E-1,2.1660626E-2,1.2311412E0,1.8671429E0,0E0,0E0,0E0,0E0,0E0,0E0],"parents":[2147483647,0,0,1,1,3,3,5,5,6,6,7,7,8,8],"right_children":[2,4,-1,6,-1,8,10,12,14,-1,-1,-1,-1,-1,-1],"split_conditions":[1E0,1E0,4.4640835E-2,1E0,-5.6251187E-2,1E0,1E0,1E0,1E0,-5.9701767E-2,-1.5570899E-2,-1.2332611E-2,2.7778536E-2,5.6002267E-2,-4.369724E-2],"split_indices":[86,16,0,146,0,32,33,66,75,0,0,0,0,0,0],"split_type":[0,0,0,0,0,0,0,0,0,0,0,0,0,0,0],"sum_hessian":[5.2964684E1,5.1572826E1,1.3918583E0,5.0208904E1,1.3639221E0,4.7770485E1,2.438418E0,4.0417896E1,7.3525877E0,1.3317795E0,1.1066384E0,3.139002E1,9.027877E0,5.56603E0,1.7865579E0],"tree_param":{"num_deleted":"0","num_feature":"178","num_nodes":"15","size_leaf_vector":"1"}},{"base_weights":[-1.330611E-2,-4.2126518E-2,3.1424788E-1,4.5923153E-3,-3.0046856E-1,4.8600893E-2,-1.0543143E-2,6.409047E-2,-4.303382E-1,-5.3072906E-1,8.398916E-2,1.21161684E-1,-4.764072E-1,-7.1388996E-1,2.173826E-2,-1.9873202E-1,-8.135317E-2,2.7044151E-2,-1.2570227E-2,1.94091E-2,-4.271452E-2,-2.142071E-2,-6.0864616E-2,-8.167379E-2,-2.167346E-2,2.6153013E-2,-5.2108806E-2],"categories":[],"categories_nodes":[],"categories_segments":[],"categories_sizes":[],"default_left":[0,0,0,0,0,0,0,0,0,0,0,0,0,0,0,0,0,0,0,0,0,0,0,0,0,0,0],"id":50,"left_children":[1,3,5,7,9,-1,-1,11,13,15,17,19,21,23,-1,25,-1,-1,-1,-1,-1,-1,-1,-1,-1,-1,-1],"loss_changes":[5.2112806E-1,6.0885173E-1,3.7339512E-1,1.1560571E0,7.2826666E-1,0E0,0E0,1.267875E0,1.1427996E0,3.046584E-1,1.8085618E-1,1.5337144E0,6.5662265E-3,2.6154041E-2,0E0,6.715846E-1,0E0,0E0,0E0,0E0,0E0,0E0,0E0,0E0,0E0,0E0,0E0],"parents":[2147483647,0,0,1,1,2,2,3,3,4,4,7,7,8,8,9,9,10,10,11,11,12,12,13,13,15,15],"right_children":[2,4,6,8,10,-1,-1,12,14,16,18,20,22,24,-1,26,-1,-1,-1,-1,-1,-1,-1,-1,-1,-1,-1],"split_conditions":[1E0,1E0,1E0,1E0,1E0,4.8600893E-2,-1.0543143E-2,1E0,1E0,1E0,1E0,1E0,1E0,1E0,2.173826E-2,1E0,-8.135317E-2,2.7044151E-2,-1.2570227E-2,1.94091E-2,-4.271452E-2,-2.142071E-2,-6.0864616E-2,-8.167379E-2,-2.167346E-2,2.6153013E-2,-5.2108806E-2],"split_indices":[2,75,177,122,176,0,0,85,6,99,168,43,89,158,0,169,0,0,0,0,0,0,0,0,0,0,0],"split_type":[0,0,0,0,0,0,0,0,0,0,0,0,0,0,0,0,0,0,0,0,0,0,0,0,0,0,0],"sum_hessian":[5.2800533E1,4.9331413E1,3.4691198E0,4.2608307E1,6.7231054E0,2.3494985E0,1.1196213E0,3.823098E1,4.377326E0,3.966823E0,2.756282E0,3.528144E1,2.9495392E0,2.9734755E0,1.4038506E0,2.6079435E0,1.3588796E0,1.3056337E0,1.4506485E0,3.1709797E1,3.571645E0,1.8671834E0,1.0823557E0,1.9311504E0,1.0423249E0,1.1519184E0,1.4560252E0],"tree_param":{"num_deleted":"0","num_feature":"178","num_nodes":"27","size_leaf_vector":"1"}},{"base_weights":[-1.6590046E-2,-3.6200117E-2,4.2226877E-2,-1.2251711E-2,-5.4041356E-2,2.0194467E-2,-4.7009745E-1,-1.3693836E-2,4.0937287E-1,-5.7024475E-2,-1.3380206E-2,-7.1192444E-3,2.87677E-2,8.218206E-2,-1.6634759E-2],"categories":[],"categories_nodes":[],"categories_segments":[],"categories_sizes":[],"default_left":[0,0,0,0,0,0,0,0,0,0,0,0,0,0,0],"id":51,"left_children":[1,3,-1,5,-1,7,9,11,13,-1,-1,-1,-1,-1,-1],"loss_changes":[4.7638515E-1,6.237937E-1,0E0,7.650916E-1,0E0,6.446793E-1,3.845179E-2,8.096628E-1,1.0660602E0,0E0,0E0,0E0,0E0,0E0,0E0],"parents":[2147483647,0,0,1,1,3,3,5,5,6,6,7,7,8,8],"right_children":[2,4,-1,6,-1,8,10,12,14,-1,-1,-1,-1,-1,-1],"split_conditions":[1E0,1E0,4.2226877E-2,1E0,-5.4041356E-2,1E0,1E0,1E0,1E0,-5.7024475E-2,-1.3380206E-2,-7.1192444E-3,2.87677E-2,8.218206E-2,-1.6634759E-2],"split_indices":[86,16,0,146,0,81,33,32,168,0,0,0,0,0,0],"split_type":[0,0,0,0,0,0,0,0,0,0,0,0,0,0,0],"sum_hessian":[5.2578457E1,5.120779E1,1.3706677E0,4.986373E1,1.3440571E0,4.745652E1,2.4072113E0,4.454271E1,2.913811E0,1.3188095E0,1.0884019E0,3.804741E1,6.4953017E0,1.4485798E0,1.4652311E0],"tree_param":{"num_deleted":"0","num_feature":"178","num_nodes":"15","size_leaf_vector":"1"}},{"base_weights":[-1.483437E-2,6.507261E-3,-4.149185E-2,-1.6377686E-2,4.9945474E-2,4.7548596E-2,-2.3515896E-1,1.0536391E-1,-4.972115E-2,-3.441712E-1,4.3705042E-2,2.2556342E-3,4.5273285E-2,-4.836614E-2,2.064756E-2],"categories":[],"categories_nodes":[],"categories_segments":[],"categories_sizes":[],"default_left":[0,0,0,0,0,0,0,0,0,0,0,0,0,0,0],"id":52,"left_children":[1,3,-1,5,-1,7,9,11,-1,13,-1,-1,-1,-1,-1],"loss_changes":[4.5920268E-1,5.9187865E-1,0E0,7.1626735E-1,0E0,1.3073643E0,9.9810606E-1,1.0497196E0,0E0,9.073787E-1,0E0,0E0,0E0,0E0,0E0],"parents":[2147483647,0,0,1,1,3,3,5,5,6,6,7,7,9,9],"right_children":[2,4,-1,6,-1,8,10,12,-1,14,-1,-1,-1,-1,-1],"split_conditions":[1E0,1E0,-4.149185E-2,1E0,4.9945474E-2,1E0,1E0,1E0,-4.972115E-2,1E0,4.3705042E-2,2.2556342E-3,4.5273285E-2,-4.836614E-2,2.064756E-2],"split_indices":[133,116,0,55,0,161,81,6,0,99,0,0,0,0,0],"split_type":[0,0,0,0,0,0,0,0,0,0,0,0,0,0,0],"sum_hessian":[5.2464363E1,5.0741405E1,1.7229564E0,4.9414143E1,1.3272616E0,3.884623E1,1.0567916E1,3.5848244E1,2.997983E0,9.513165E0,1.0547507E0,2.9807514E1,6.0407314E0,7.6874294E0,1.8257362E0],"tree_param":{"num_deleted":"0","num_feature":"178","num_nodes":"15","size_leaf_vector":"1"}},{"base_weights":[-1.29522355E-2,-4.021862E-2,2.9850712E-1,-9.797352E-2,1.6791418E-1,4.6502657E-2,-1.0514141E-2,-4.594708E-2,-7.4746646E-2,3.1953767E-1,-6.220634E-2,-9.7726665E-2,7.418829E-2,4.9022412E-1,-4.6415295E-2,-2.6448423E-3,-5.913433E-2,6.606025E-2,-1.6692208E-2],"categories":[],"categories_nodes":[],"categories_segments":[],"categories_sizes":[],"default_left":[0,0,0,0,0,0,0,0,0,0,0,0,0,0,0,0,0,0,0],"id":53,"left_children":[1,3,5,7,9,-1,-1,11,-1,13,-1,15,-1,17,-1,-1,-1,-1,-1],"loss_changes":[4.651633E-1,6.1684227E-1,3.4558862E-1,1.3081262E0,1.5424098E0,0E0,0E0,1.6164529E0,0E0,1.574813E0,0E0,1.2649722E0,0E0,1.0907271E0,0E0,0E0,0E0,0E0,0E0],"parents":[2147483647,0,0,1,1,2,2,3,3,4,4,7,7,9,9,11,11,13,13],"right_children":[2,4,6,8,10,-1,-1,12,-1,14,-1,16,-1,18,-1,-1,-1,-1,-1],"split_conditions":[1E0,1E0,1E0,1E0,1E0,4.6502657E-2,-1.0514141E-2,1E0,-7.4746646E-2,1E0,-6.220634E-2,1E0,7.418829E-2,1E0,-4.6415295E-2,-2.6448423E-3,-5.913433E-2,6.606025E-2,-1.6692208E-2],"split_indices":[2,98,177,22,93,0,0,145,0,158,0,122,0,139,0,0,0,0,0],"split_type":[0,0,0,0,0,0,0,0,0,0,0,0,0,0,0,0,0,0,0],"sum_hessian":[5.2360577E1,4.894648E1,3.414098E0,3.872886E1,1.021762E1,2.3093505E0,1.1047477E0,3.6847965E1,1.8808953E0,9.071921E0,1.145699E0,3.5397446E1,1.450518E0,7.7569404E0,1.3149806E0,3.1851648E1,3.5457973E0,6.1556935E0,1.6012471E0],"tree_param":{"num_deleted":"0","num_feature":"178","num_nodes":"19","size_leaf_vector":"1"}},{"base_weights":[-1.3297447E-2,-4.0869642E-2,2.8962335E-1,-6.5902835E-3,-5.3929734E-1,-1.3675794E-1,8.505796E-2,-6.442867E-2,2.90385E-1,-3.6914446E-3,-7.919479E-2,-3.191681E-2,1.3490326E-2,-1.286597E-2,-7.0874505E-2,4.801121E-1,-3.0653035E-2,7.890235E-3,-3.8292877E-2,8.5145526E-2,-4.835643E-2],"categories":[],"categories_nodes":[],"categories_segments":[],"categories_sizes":[],"default_left":[0,0,0,0,0,0,0,0,0,0,0,0,0,0,0,0,0,0,0,0,0],"id":54,"left_children":[1,3,5,7,9,11,-1,13,15,-1,-1,-1,-1,17,-1,19,-1,-1,-1,-1,-1],"loss_changes":[4.559645E-1,8.4415823E-1,1.2069701E0,8.3347553E-1,3.7443602E-1,2.1412668E-1,0E0,1.3370912E0,1.0434319E0,0E0,0E0,0E0,0E0,1.3389255E0,0E0,2.700173E0,0E0,0E0,0E0,0E0,0E0],"parents":[2147483647,0,0,1,1,2,2,3,3,4,4,5,5,7,7,8,8,13,13,15,15],"right_children":[2,4,6,8,10,12,-1,14,16,-1,-1,-1,-1,18,-1,20,-1,-1,-1,-1,-1],"split_conditions":[1E0,1E0,1E0,1E0,1E0,1E0,8.505796E-2,1E0,1E0,-3.6914446E-3,-7.919479E-2,-3.191681E-2,1.3490326E-2,1E0,-7.0874505E-2,1E0,-3.0653035E-2,7.890235E-3,-3.8292877E-2,8.5145526E-2,-4.835643E-2],"split_indices":[35,146,100,32,54,99,0,161,75,0,0,0,0,68,0,177,0,0,0,0,0],"split_type":[0,0,0,0,0,0,0,0,0,0,0,0,0,0,0,0,0,0,0,0,0],"sum_hessian":[5.217499E1,4.8615074E1,3.559918E0,4.6434746E1,2.180327E0,2.4522073E0,1.1077105E0,3.9520794E1,6.91395E0,1.1130975E0,1.0672295E0,1.3624791E0,1.0897284E0,3.7536804E1,1.9839895E0,5.394886E0,1.5190641E0,3.0708488E1,6.8283167E0,3.978328E0,1.4165581E0],"tree_param":{"num_deleted":"0","num_feature":"178","num_nodes":"21","size_leaf_vector":"1"}},{"base_weights":[-1.4010396E-2,-4.057794E-2,2.8995416E-1,-1.0443435E-2,-4.3919392E-2,4.428767E-2,-8.677052E-3,-5.1204212E-2,4.0660616E-2,2.5008846E-2,-3.2429743E-1,7.829471E-3,-5.587964E-2,-5.4854084E-2,6.1875463E-2],"categories":[],"categories_nodes":[],"categories_segments":[],"categories_sizes":[],"default_left":[0,0,0,0,0,0,0,0,0,0,0,0,0,0,0],"id":55,"left_children":[1,3,5,7,-1,-1,-1,9,-1,11,13,-1,-1,-1,-1],"loss_changes":[4.3951625E-1,5.910698E-1,2.9077393E-1,8.2194686E-1,0E0,0E0,0E0,9.201348E-1,0E0,1.1383708E0,2.3763824E0,0E0,0E0,0E0,0E0],"parents":[2147483647,0,0,1,1,2,2,3,3,7,7,9,9,10,10],"right_children":[2,4,6,8,-1,-1,-1,10,-1,12,14,-1,-1,-1,-1],"split_conditions":[1E0,1E0,1E0,1E0,-4.3919392E-2,4.428767E-2,-8.677052E-3,1E0,4.0660616E-2,1E0,1E0,7.829471E-3,-5.587964E-2,-5.4854084E-2,6.1875463E-2],"split_indices":[2,4,177,42,0,0,0,59,0,22,159,0,0,0,0],"split_type":[0,0,0,0,0,0,0,0,0,0,0,0,0,0,0],"sum_hessian":[5.1968327E1,4.8588066E1,3.3802588E0,4.612715E1,2.4609137E0,2.2793946E0,1.1008643E0,4.2819378E1,3.307774E0,3.418709E1,8.632285E0,3.2121174E1,2.065918E0,7.3119493E0,1.3203357E0],"tree_param":{"num_deleted":"0","num_feature":"178","num_nodes":"15","size_leaf_vector":"1"}},{"base_weights":[-1.2828336E-2,8.139553E-3,-4.02919E-2,-1.6090373E-2,4.687455E-2,-7.5838104E-2,1.9044733E-1,3.436725E-2,-3.4877968E-1,3.8175184E-1,-6.0128372E-2,-5.034077E-3,6.629255E-2,-5.881644E-2,2.947085E-2,6.55865E-2,-5.053837E-2],"categories":[],"categories_nodes":[],"categories_segments":[],"categories_sizes":[],"default_left":[0,0,0,0,0,0,0,0,0,0,0,0,0,0,0,0,0],"id":56,"left_children":[1,3,-1,5,-1,7,9,11,13,15,-1,-1,-1,-1,-1,-1,-1],"loss_changes":[4.348173E-1,5.772632E-1,0E0,6.2483525E-1,0E0,1.187517E0,1.9536668E0,1.5641391E0,1.9187074E0,2.7096364E0,0E0,0E0,0E0,0E0,0E0,0E0,0E0],"parents":[2147483647,0,0,1,1,3,3,5,5,6,6,7,7,8,8,9,9],"right_children":[2,4,-1,6,-1,8,10,12,14,16,-1,-1,-1,-1,-1,-1,-1],"split_conditions":[1E0,1E0,-4.02919E-2,1E0,4.687455E-2,1E0,1E0,1E0,1E0,1E0,-6.0128372E-2,-5.034077E-3,6.629255E-2,-5.881644E-2,2.947085E-2,6.55865E-2,-5.053837E-2],"split_indices":[133,72,0,58,0,169,123,30,100,68,0,0,0,0,0,0,0],"split_type":[0,0,0,0,0,0,0,0,0,0,0,0,0,0,0,0,0],"sum_hessian":[5.175924E1,5.0048218E1,1.7110237E0,4.8463867E1,1.5843484E0,3.8080624E1,1.0383244E1,2.7750086E1,1.033054E1,8.779658E0,1.6035862E0,2.5265127E1,2.4849591E0,7.59215E0,2.738389E0,6.9063735E0,1.8732843E0],"tree_param":{"num_deleted":"0","num_feature":"178","num_nodes":"17","size_leaf_vector":"1"}},{"base_weights":[-1.1669978E-2,-3.0982248E-2,4.0714603E-2,-2.2808483E-3,-4.398227E-2,2.531083E-2,-4.138532E-2,8.20994E-2,-2.82809E-1,1.3553904E-2,-3.937531E-2,6.414196E-3,-7.097006E-2],"categories":[],"categories_nodes":[],"categories_segments":[],"categories_sizes":[],"default_left":[0,0,0,0,0,0,0,0,0,0,0,0,0],"id":57,"left_children":[1,3,-1,5,-1,7,-1,9,11,-1,-1,-1,-1],"loss_changes":[4.3759522E-1,5.9927636E-1,0E0,5.6470925E-1,0E0,8.400378E-1,0E0,1.0754216E0,1.1548345E0,0E0,0E0,0E0,0E0],"parents":[2147483647,0,0,1,1,3,3,5,5,7,7,8,8],"right_children":[2,4,-1,6,-1,8,-1,10,12,-1,-1,-1,-1],"split_conditions":[1E0,1E0,4.0714603E-2,1E0,-4.398227E-2,1E0,-4.138532E-2,1E0,1E0,1.3553904E-2,-3.937531E-2,6.414196E-3,-7.097006E-2],"split_indices":[3,4,0,92,0,75,0,85,99,0,0,0,0],"split_type":[0,0,0,0,0,0,0,0,0,0,0,0,0],"sum_hessian":[5.154275E1,5.0156006E1,1.3867488E0,4.7805542E1,2.3504639E0,4.5681564E1,2.1239753E0,3.91918E1,6.489767E0,3.5877785E1,3.3140144E0,4.048856E0,2.4409115E0],"tree_param":{"num_deleted":"0","num_feature":"178","num_nodes":"13","size_leaf_vector":"1"}},{"base_weights":[-1.3138011E-2,-3.0814294E-2,4.4458102E-2,-4.369921E-4,-4.478496E-1,-4.179529E-2,3.604875E-1,4.5295684E-3,-7.664216E-2,1.7356683E-2,-2.9405683E-1,5.2688744E-2,-1.6809745E-3,1.0603561E-2,-3.4105305E-2,-4.8502658E-2,5.7149705E-2],"categories":[],"categories_nodes":[],"categories_segments":[],"categories_sizes":[],"default_left":[0,0,0,0,0,0,0,0,0,0,0,0,0,0,0,0,0],"id":58,"left_children":[1,3,-1,5,7,9,11,-1,-1,13,15,-1,-1,-1,-1,-1,-1],"loss_changes":[4.375575E-1,6.5064526E-1,0E0,7.448282E-1,5.825569E-1,6.7297155E-1,3.3093083E-1,0E0,0E0,1.2185243E0,1.6916766E0,0E0,0E0,0E0,0E0,0E0,0E0],"parents":[2147483647,0,0,1,1,3,3,4,4,5,5,6,6,9,9,10,10],"right_children":[2,4,-1,6,8,10,12,-1,-1,14,16,-1,-1,-1,-1,-1,-1],"split_conditions":[1E0,1E0,4.4458102E-2,1E0,1E0,1E0,1E0,4.5295684E-3,-7.664216E-2,1E0,1E0,5.2688744E-2,-1.6809745E-3,1.0603561E-2,-3.4105305E-2,-4.8502658E-2,5.7149705E-2],"split_indices":[167,160,0,15,54,89,101,0,0,68,68,0,0,0,0,0,0],"split_type":[0,0,0,0,0,0,0,0,0,0,0,0,0,0,0,0,0],"sum_hessian":[5.1387844E1,5.0375126E1,1.0127178E0,4.7887962E1,2.487163E0,4.3757942E1,4.1300187E0,1.3127931E0,1.1743699E0,3.6200584E1,7.5573597E0,2.5908809E0,1.5391381E0,2.958477E1,6.6158123E0,6.551514E0,1.0058458E0],"tree_param":{"num_deleted":"0","num_feature":"178","num_nodes":"17","size_leaf_vector":"1"}},{"base_weights":[-1.171759E-2,-2.9610733E-2,4.21561E-2,-5.7266206E-2,2.8215986E-1,-7.861634E-2,3.9210316E-2,4.2405523E-2,-6.9676796E-3,-3.6364295E-2,-3.7722385E-1,-8.709366E-3,3.327578E-2,-6.292537E-2,2.2722105E-2],"categories":[],"categories_nodes":[],"categories_segments":[],"categories_sizes":[],"default_left":[0,0,0,0,0,0,0,0,0,0,0,0,0,0,0],"id":59,"left_children":[1,3,-1,5,7,9,-1,-1,-1,11,13,-1,-1,-1,-1],"loss_changes":[4.1746908E-1,4.567564E-1,0E0,4.8912036E-1,2.4583012E-1,5.721399E-1,0E0,0E0,0E0,8.114291E-1,1.0035758E0,0E0,0E0,0E0,0E0],"parents":[2147483647,0,0,1,1,3,3,4,4,5,5,9,9,10,10],"right_children":[2,4,-1,6,8,10,-1,-1,-1,12,14,-1,-1,-1,-1],"split_conditions":[1E0,1E0,4.21561E-2,1E0,1E0,1E0,3.9210316E-2,4.2405523E-2,-6.9676796E-3,1E0,1E0,-8.709366E-3,3.327578E-2,-6.292537E-2,2.2722105E-2],"split_indices":[71,2,0,86,177,122,0,0,0,74,6,0,0,0,0],"split_type":[0,0,0,0,0,0,0,0,0,0,0,0,0,0,0],"sum_hessian":[5.1238003E1,5.010065E1,1.1373519E0,4.67684E1,3.3322508E0,4.5434784E1,1.3336153E0,2.228313E0,1.103938E0,4.0785534E1,4.649249E0,3.6529278E1,4.256258E0,3.2521753E0,1.3970739E0],"tree_param":{"num_deleted":"0","num_feature":"178","num_nodes":"15","size_leaf_vector":"1"}},{"base_weights":[-8.627715E-3,1.1741964E-2,-3.8502403E-2,-9.65548E-3,4.663457E-2,5.069421E-2,-2.1827376E-1,1.03812546E-1,-4.476811E-2,-3.2345566E-1,4.2046454E-2,2.5221736E-3,4.3225765E-2,-4.5630153E-2,2.0381292E-2],"categories":[],"categories_nodes":[],"categories_segments":[],"categories_sizes":[],"default_left":[0,0,0,0,0,0,0,0,0,0,0,0,0,0,0],"id":60,"left_children":[1,3,-1,5,-1,7,9,11,-1,13,-1,-1,-1,-1,-1],"loss_changes":[4.040594E-1,4.9482036E-1,0E0,6.294868E-1,0E0,1.0765375E0,8.891141E-1,9.176906E-1,0E0,8.067645E-1,0E0,0E0,0E0,0E0,0E0],"parents":[2147483647,0,0,1,1,3,3,5,5,6,6,7,7,9,9],"right_children":[2,4,-1,6,-1,8,10,12,-1,14,-1,-1,-1,-1,-1],"split_conditions":[1E0,1E0,-3.8502403E-2,1E0,4.663457E-2,1E0,1E0,1E0,-4.476811E-2,1E0,4.2046454E-2,2.5221736E-3,4.3225765E-2,-4.5630153E-2,2.0381292E-2],"split_indices":[133,116,0,55,0,161,81,6,0,14,0,0,0,0,0],"split_type":[0,0,0,0,0,0,0,0,0,0,0,0,0,0,0],"sum_hessian":[5.1110966E1,4.9406033E1,1.7049335E0,4.8119873E1,1.2861619E0,3.7910122E1,1.0209748E1,3.497417E1,2.935954E0,9.190018E0,1.0197304E0,2.9090214E1,5.8839564E0,7.4480643E0,1.7419534E0],"tree_param":{"num_deleted":"0","num_feature":"178","num_nodes":"15","size_leaf_vector":"1"}},{"base_weights":[-7.2780573E-3,-2.6003463E-2,3.990277E-2,9.3094184E-4,-4.1460913E-2,-3.143658E-2,3.590818E-2,2.9460727E-3,-5.3788222E-2,-3.8940988E-3,4.4784695E-2],"categories":[],"categories_nodes":[],"categories_segments":[],"categories_sizes":[],"default_left":[0,0,0,0,0,0,0,0,0,0,0],"id":61,"left_children":[1,3,-1,5,-1,7,-1,9,-1,-1,-1],"loss_changes":[4.060104E-1,5.30518E-1,0E0,5.7193935E-1,0E0,7.8994536E-1,0E0,8.260505E-1,0E0,0E0,0E0],"parents":[2147483647,0,0,1,1,3,3,5,5,7,7],"right_children":[2,4,-1,6,-1,8,-1,10,-1,-1,-1],"split_conditions":[1E0,1E0,3.990277E-2,1E0,-4.1460913E-2,1E0,3.590818E-2,1E0,-5.3788222E-2,-3.8940988E-3,4.4784695E-2],"split_indices":[3,4,0,42,0,92,0,30,0,0,0],"split_type":[0,0,0,0,0,0,0,0,0,0,0],"sum_hessian":[5.1000763E1,4.9648605E1,1.3521543E0,4.7363434E1,2.285173E0,4.4274406E1,3.0890293E0,4.239068E1,1.8837254E0,3.9577007E1,2.813671E0],"tree_param":{"num_deleted":"0","num_feature":"178","num_nodes":"11","size_leaf_vector":"1"}},{"base_weights":[-6.1371434E-3,-2.3611529E-2,4.1613195E-2,-7.248421E-2,1.5253866E-1,-2.8938768E-2,-6.47964E-2,3.420009E-3,7.6537065E-2,2.3048677E-2,-5.187289E-2,2.3989096E-1,-5.7813864E-2,-4.709399E-3,5.0640542E-2,5.1479258E-2,-3.9006416E-2],"categories":[],"categories_nodes":[],"categories_segments":[],"categories_sizes":[],"default_left":[0,0,0,0,0,0,0,0,0,0,0,0,0,0,0,0,0],"id":62,"left_children":[1,3,-1,5,7,9,-1,11,-1,13,-1,15,-1,-1,-1,-1,-1],"loss_changes":[3.925412E-1,4.4797316E-1,0E0,9.938214E-1,1.0341268E0,9.9510634E-1,0E0,1.5316572E0,0E0,1.2397616E0,0E0,1.5702347E0,0E0,0E0,0E0,0E0,0E0],"parents":[2147483647,0,0,1,1,3,3,4,4,5,5,7,7,9,9,11,11],"right_children":[2,4,-1,6,8,10,-1,12,-1,14,-1,16,-1,-1,-1,-1,-1],"split_conditions":[1E0,1E0,4.1613195E-2,1E0,1E0,1E0,-6.47964E-2,1E0,7.6537065E-2,1E0,-5.187289E-2,1E0,-5.7813864E-2,-4.709399E-3,5.0640542E-2,5.1479258E-2,-3.9006416E-2],"split_indices":[71,66,0,109,35,161,0,55,0,60,0,176,0,0,0,0,0],"split_type":[0,0,0,0,0,0,0,0,0,0,0,0,0,0,0,0,0],"sum_hessian":[5.0866276E1,4.9751537E1,1.1147394E0,3.94067E1,1.0344837E1,3.761103E1,1.7956675E0,9.129068E0,1.2157693E0,3.4863483E1,2.7475479E0,6.907765E0,2.221303E0,3.123357E1,3.6299133E0,4.936411E0,1.9713542E0],"tree_param":{"num_deleted":"0","num_feature":"178","num_nodes":"17","size_leaf_vector":"1"}},{"base_weights":[-5.4453835E-3,-3.0649928E-2,2.789432E-1,-8.136005E-2,1.5213892E-1,4.189956E-2,-6.853999E-3,-1.2472214E-1,5.7554808E-2,2.9375488E-1,-5.7007987E-2,-2.2268333E-1,1.9859795E-1,4.521294E-1,-4.2388484E-2,-3.2453205E-2,2.1216098E-2,5.6309916E-2,-3.2604467E-2,6.0686786E-2,-1.5078212E-2],"categories":[],"categories_nodes":[],"categories_segments":[],"categories_sizes":[],"default_left":[0,0,0,0,0,0,0,0,0,0,0,0,0,0,0,0,0,0,0,0,0],"id":63,"left_children":[1,3,5,7,9,-1,-1,11,-1,13,-1,15,17,19,-1,-1,-1,-1,-1,-1,-1],"loss_changes":[3.79222E-1,4.6104562E-1,2.3842135E-1,1.1696873E0,1.2782558E0,0E0,0E0,1.2154398E0,0E0,1.2986621E0,0E0,1.3466289E0,1.929029E0,8.810494E-1,0E0,0E0,0E0,0E0,0E0,0E0,0E0],"parents":[2147483647,0,0,1,1,2,2,3,3,4,4,7,7,9,9,11,11,12,12,13,13],"right_children":[2,4,6,8,10,-1,-1,12,-1,14,-1,16,18,20,-1,-1,-1,-1,-1,-1,-1],"split_conditions":[1E0,1E0,1E0,1E0,1E0,4.189956E-2,-6.853999E-3,1E0,5.7554808E-2,1E0,-5.7007987E-2,1E0,1E0,1E0,-4.2388484E-2,-3.2453205E-2,2.1216098E-2,5.6309916E-2,-3.2604467E-2,6.0686786E-2,-1.5078212E-2],"split_indices":[2,98,177,145,93,0,0,66,0,158,0,97,59,139,0,0,0,0,0,0,0],"split_type":[0,0,0,0,0,0,0,0,0,0,0,0,0,0,0,0,0,0,0,0,0],"sum_hessian":[5.071294E1,4.7403896E1,3.309046E0,3.7543346E1,9.860551E0,2.2117884E0,1.0972576E0,3.597856E1,1.5647845E0,8.740027E0,1.1205238E0,2.7851292E1,8.127268E0,7.463008E0,1.2770197E0,2.2771467E1,5.079825E0,4.752273E0,3.3749948E0,5.9335804E0,1.5294273E0],"tree_param":{"num_deleted":"0","num_feature":"178","num_nodes":"21","size_leaf_vector":"1"}},{"base_weights":[-3.8494018E-3,1.5433307E-2,-3.6149863E-2,-6.8676528E-3,4.371787E-2,-6.2203057E-2,1.8244034E-1,3.8240135E-2,-3.1325758E-1,3.6228824E-1,-5.5674445E-2,-3.6464953E-3,5.9869893E-2,-5.38751E-2,2.815638E-2,6.1556138E-2,-4.4973657E-2],"categories":[],"categories_nodes":[],"categories_segments":[],"categories_sizes":[],"default_left":[0,0,0,0,0,0,0,0,0,0,0,0,0,0,0,0,0],"id":64,"left_children":[1,3,-1,5,-1,7,9,11,13,15,-1,-1,-1,-1,-1,-1,-1],"loss_changes":[3.6060372E-1,4.7143364E-1,0E0,5.1718736E-1,0E0,9.730299E-1,1.6875087E0,1.1988633E0,1.6270365E0,2.2502074E0,0E0,0E0,0E0,0E0,0E0,0E0,0E0],"parents":[2147483647,0,0,1,1,3,3,5,5,6,6,7,7,8,8,9,9],"right_children":[2,4,-1,6,-1,8,10,12,14,16,-1,-1,-1,-1,-1,-1,-1],"split_conditions":[1E0,1E0,-3.6149863E-2,1E0,4.371787E-2,1E0,1E0,1E0,1E0,1E0,-5.5674445E-2,-3.6464953E-3,5.9869893E-2,-5.38751E-2,2.815638E-2,6.1556138E-2,-4.4973657E-2],"split_indices":[133,72,0,58,0,169,123,30,100,68,0,0,0,0,0,0,0],"split_type":[0,0,0,0,0,0,0,0,0,0,0,0,0,0,0,0,0],"sum_hessian":[5.0479362E1,4.880489E1,1.6744747E0,4.7288113E1,1.5167745E0,3.711166E1,1.0176453E1,2.7112167E1,9.999495E0,8.595098E0,1.5813551E0,2.4748331E1,2.3638356E0,7.3191214E0,2.6803734E0,6.736046E0,1.859052E0],"tree_param":{"num_deleted":"0","num_feature":"178","num_nodes":"17","size_leaf_vector":"1"}},{"base_weights":[-3.4572035E-3,-2.0996174E-2,4.1439135E-2,1.2548418E-2,-2.994281E-1,4.8420284E-2,-3.5917467E-1,-5.432483E-1,3.2671373E-2,9.3243875E-2,-2.8564093E-1,-6.1292537E-2,1.5875272E-2,-9.072231E-2,2.4544043E-2,1.7055491E-2,-2.9139986E-2,-5.176341E-2,2.17985E-2],"categories":[],"categories_nodes":[],"categories_segments":[],"categories_sizes":[],"default_left":[0,0,0,0,0,0,0,0,0,0,0,0,0,0,0,0,0,0,0],"id":65,"left_children":[1,3,-1,5,7,9,11,13,-1,15,17,-1,-1,-1,-1,-1,-1,-1,-1],"loss_changes":[3.8433754E-1,4.7208783E-1,0E0,6.269244E-1,1.0067296E0,6.64063E-1,6.4163524E-1,1.4527231E0,0E0,1.1882565E0,7.3000264E-1,0E0,0E0,0E0,0E0,0E0,0E0,0E0,0E0],"parents":[2147483647,0,0,1,1,3,3,4,4,5,5,6,6,7,7,9,9,10,10],"right_children":[2,4,-1,6,8,10,12,14,-1,16,18,-1,-1,-1,-1,-1,-1,-1,-1],"split_conditions":[1E0,1E0,4.1439135E-2,1E0,1E0,1E0,1E0,1E0,3.2671373E-2,1E0,1E0,-6.1292537E-2,1.5875272E-2,-9.072231E-2,2.4544043E-2,1.7055491E-2,-2.9139986E-2,-5.176341E-2,2.17985E-2],"split_indices":[71,43,0,85,88,122,6,58,0,75,6,0,0,0,0,0,0,0,0],"split_type":[0,0,0,0,0,0,0,0,0,0,0,0,0,0,0,0,0,0,0],"sum_hessian":[5.0256065E1,4.9143063E1,1.1130022E0,4.471132E1,4.431745E0,4.1569534E1,3.1417847E0,3.2849648E0,1.1467803E0,3.7287285E1,4.2822475E0,1.985567E0,1.1562178E0,2.1448414E0,1.1401234E0,3.1510468E1,5.7768197E0,2.9127069E0,1.3695408E0],"tree_param":{"num_deleted":"0","num_feature":"178","num_nodes":"19","size_leaf_vector":"1"}},{"base_weights":[-4.732695E-3,-2.235641E-2,3.810682E-2,-4.1884996E-4,-4.8143033E-2,-3.5855815E-2,3.8129964E-1,4.112579E-3,-6.6537865E-2,6.600269E-2,-5.796021E-3,-3.9344262E-3,5.1195886E-2],"categories":[],"categories_nodes":[],"categories_segments":[],"categories_sizes":[],"default_left":[0,0,0,0,0,0,0,0,0,0,0,0,0],"id":66,"left_children":[1,3,-1,5,-1,7,9,11,-1,-1,-1,-1,-1],"loss_changes":[3.5560983E-1,5.0095874E-1,0E0,6.696507E-1,0E0,1.1422473E0,5.5314934E-1,9.819021E-1,0E0,0E0,0E0,0E0,0E0],"parents":[2147483647,0,0,1,1,3,3,5,5,6,6,7,7],"right_children":[2,4,-1,6,-1,8,10,12,-1,-1,-1,-1,-1],"split_conditions":[1E0,1E0,3.810682E-2,1E0,-4.8143033E-2,1E0,1E0,1E0,-6.6537865E-2,6.600269E-2,-5.796021E-3,-3.9344262E-3,5.1195886E-2],"split_indices":[86,16,0,147,0,90,68,35,0,0,0,0,0],"split_type":[0,0,0,0,0,0,0,0,0,0,0,0,0],"sum_hessian":[5.0048393E1,4.8762913E1,1.2854795E0,4.749424E1,1.2686735E0,4.4288746E1,3.2054932E0,4.257888E1,1.7098653E0,1.6536194E0,1.5518739E0,4.007238E1,2.506501E0],"tree_param":{"num_deleted":"0","num_feature":"178","num_nodes":"13","size_leaf_vector":"1"}},{"base_weights":[-3.6667888E-3,-2.814258E-2,2.723696E-1,-3.512303E-3,-3.6440808E-1,4.2655792E-2,-4.9023097E-3,-4.141817E-2,3.816419E-2,-5.575056E-3,-4.8941292E-2,1.9446848E-2,-2.8614017E-1,6.6105663E-3,-5.6372505E-2,-3.8424686E-2,7.380947E-3],"categories":[],"categories_nodes":[],"categories_segments":[],"categories_sizes":[],"default_left":[0,0,0,0,0,0,0,0,0,0,0,0,0,0,0,0,0],"id":67,"left_children":[1,3,5,7,9,-1,-1,11,-1,-1,-1,13,15,-1,-1,-1,-1],"loss_changes":[3.5183805E-1,3.9377826E-1,2.3115784E-1,6.7940867E-1,9.794271E-2,0E0,0E0,6.353689E-1,0E0,0E0,0E0,9.841124E-1,3.2800627E-1,0E0,0E0,0E0,0E0],"parents":[2147483647,0,0,1,1,2,2,3,3,4,4,7,7,11,11,12,12],"right_children":[2,4,6,8,10,-1,-1,12,-1,-1,-1,14,16,-1,-1,-1,-1],"split_conditions":[1E0,1E0,1E0,1E0,1E0,4.2655792E-2,-4.9023097E-3,1E0,3.816419E-2,-5.575056E-3,-4.8941292E-2,1E0,1E0,6.6105663E-3,-5.6372505E-2,-3.8424686E-2,7.380947E-3],"split_indices":[2,4,168,42,97,0,0,88,0,0,0,90,61,0,0,0,0],"split_type":[0,0,0,0,0,0,0,0,0,0,0,0,0,0,0,0,0],"sum_hessian":[4.9941715E1,4.669902E1,3.2426949E0,4.4453407E1,2.2456126E0,1.9702495E0,1.2724452E0,4.1282917E1,3.1704926E0,1.0641178E0,1.1814947E0,3.3797615E1,7.4852986E0,3.21148E1,1.6828182E0,5.8290505E0,1.6562481E0],"tree_param":{"num_deleted":"0","num_feature":"178","num_nodes":"17","size_leaf_vector":"1"}},{"base_weights":[-4.4957986E-3,-2.126782E-2,3.9754383E-2,6.611307E-3,-3.0305794E-1,4.3953992E-2,-4.05474E-1,-5.5327054E-2,8.09134E-3,8.405055E-2,-5.576163E-2,-6.6545375E-2,1.1357422E-2,1.26753375E-2,-3.5173092E-2],"categories":[],"categories_nodes":[],"categories_segments":[],"categories_sizes":[],"default_left":[0,0,0,0,0,0,0,0,0,0,0,0,0,0,0],"id":68,"left_children":[1,3,-1,5,7,9,11,-1,-1,13,-1,-1,-1,